{"learner":{"attributes":{"scikit_learn":"{\"_estimator_type\": \"regressor\"}"},"feature_names":[],"feature_types":[],"gradient_booster":{"model":{"gbtree_model_param":{"num_parallel_tree":"1","num_trees":"100"},"iteration_indptr":[0,1,2,3,4,5,6,7,8,9,10,11,12,13,14,15,16,17,18,19,20,21,22,23,24,25,26,27,28,29,30,31,32,33,34,35,36,37,38,39,40,41,42,43,44,45,46,47,48,49,50,51,52,53,54,55,56,57,58,59,60,61,62,63,64,65,66,67,68,69,70,71,72,73,74,75,76,77,78,79,80,81,82,83,84,85,86,87,88,89,90,91,92,93,94,95,96,97,98,99,100],"tree_info":[0,0,0,0,0,0,0,0,0,0,0,0,0,0,0,0,0,0,0,0,0,0,0,0,0,0,0,0,0,0,0,0,0,0,0,0,0,0,0,0,0,0,0,0,0,0,0,0,0,0,0,0,0,0,0,0,0,0,0,0,0,0,0,0,0,0,0,0,0,0,0,0,0,0,0,0,0,0,0,0,0,0,0,0,0,0,0,0,0,0,0,0,0,0,0,0,0,0,0,0],"trees":[{"base_weights":[-2.3384212E-6,4.4924686E1,-3.5051132E1,3.7453136E0,9.09651E1,-4.8400898E1,2.043405E1,-3.782595E1,4.0155563E1,-1.119192E1,1.11231514E2,-5.5403954E1,-3.0174814E1,1.7746216E1,3.2665873E0,-1.7963114E1,-2.107175E1,1.2691466E2,-2.0446848E1,-3.0738794E1,5.7694965E1,1.25418396E2,4.8761417E1,-1.4876502E1,-1.8113337E1,-3.700384E1,-1.496038E1,-1.394442E1,1.6817621E1,-8.773936E0,6.2352973E-1,2.5833363E1,4.8616394E1,-3.620558E1,-3.5775313E-1,-1.2571513E1,-3.5131626E0,2.2614368E1,3.3483675E0,5.595537E1,3.981072E1,3.8632496E1,1.9881207E1,-2.7578379E1,-1.3188714E1,-2.3632265E1,-1.6736145E0,-6.421232E0,7.7996063E-1,4.3906717E0,7.3843207E0,-5.620212E0,9.803492E0,-1.2966538E1,-4.4796124E0,5.9037733E0,-7.1023874E0,-5.52951E0,6.1863675E0,2.4583008E0,3.029549E1,-4.230112E-1,1.0293113E1,-1.0322799E1,-5.7603464E0,-4.060812E0,-8.700612E0,6.3055116E-1,-1.5091988E0,2.4194903E0,-2.0295098E0,3.1534898E0,-4.8011627E-2],"categories":[],"categories_nodes":[],"categories_segments":[],"categories_sizes":[],"default_left":[0,0,0,0,0,0,0,0,0,0,0,0,0,0,0,0,0,0,0,0,0,0,0,0,0,0,0,0,0,0,0,0,0,0,0,0,0,0,0,0,0,0,0,0,0,0,0,0,0,0,0,0,0,0,0,0,0,0,0,0,0,0,0,0,0,0,0,0,0,0,0,0,0],"id":0,"left_children":[1,3,5,7,9,11,13,15,17,19,21,23,25,-1,27,-1,29,31,33,35,37,39,41,-1,-1,43,45,47,49,-1,51,-1,-1,53,55,-1,57,-1,-1,59,-1,-1,61,63,-1,65,67,-1,69,71,-1,-1,-1,-1,-1,-1,-1,-1,-1,-1,-1,-1,-1,-1,-1,-1,-1,-1,-1,-1,-1,-1,-1],"loss_changes":[5.1019022E5,2.688793E5,1.3579903E5,1.1655405E5,1.3995875E5,1.7091031E4,2.3736834E4,1.203843E4,2.1816523E5,1.7931754E4,4.351475E4,4.31875E1,3.9141016E3,0E0,6.298412E3,0E0,3.9199893E3,1.04204375E4,7.9015146E3,2.8928623E3,1.6276758E3,1.5343125E4,2.5169496E4,0E0,0E0,6.89625E2,1.6887686E3,1.3347654E3,1.3452788E3,0E0,4.955714E3,0E0,0E0,1.4442461E3,6.0722993E3,0E0,1.8202831E3,0E0,0E0,1.2076455E4,0E0,0E0,3.120528E3,1.9766797E2,0E0,9.535693E1,9.9294235E1,0E0,3.2938635E2,1.966653E2,0E0,0E0,0E0,0E0,0E0,0E0,0E0,0E0,0E0,0E0,0E0,0E0,0E0,0E0,0E0,0E0,0E0,0E0,0E0,0E0,0E0,0E0,0E0],"parents":[2147483647,0,0,1,1,2,2,3,3,4,4,5,5,6,6,7,7,8,8,9,9,10,10,11,11,12,12,14,14,16,16,17,17,18,18,19,19,20,20,21,21,22,22,25,25,26,26,27,27,28,28,30,30,33,33,34,34,36,36,39,39,42,42,43,43,45,45,46,46,48,48,49,49],"right_children":[2,4,6,8,10,12,14,16,18,20,22,24,26,-1,28,-1,30,32,34,36,38,40,42,-1,-1,44,46,48,50,-1,52,-1,-1,54,56,-1,58,-1,-1,60,-1,-1,62,64,-1,66,68,-1,70,72,-1,-1,-1,-1,-1,-1,-1,-1,-1,-1,-1,-1,-1,-1,-1,-1,-1,-1,-1,-1,-1,-1,-1],"split_conditions":[8.5615987E-1,-1.4238021E-1,1.236721E0,-2.530122E-1,-1.6915676E-1,4.486632E-1,7.938117E-1,-1.6915676E-1,7.938117E-1,8.4269214E-1,1.0951275E0,7.938117E-1,1.0889466E0,1.7746216E1,1.6307501E0,-1.7963114E1,-5.3640914E-1,-7.334236E-1,1.0951275E0,4.486632E-1,9.6964806E-1,5.4634266E-2,7.938117E-1,-1.4876502E1,-1.8113337E1,7.938117E-1,8.4269214E-1,1.0889466E0,1.8277645E0,-8.773936E0,1.0889466E0,2.5833363E1,4.8616394E1,-5.3640914E-1,1.0889466E0,-1.2571513E1,7.938117E-1,2.2614368E1,3.3483675E0,1.0889466E0,3.981072E1,3.8632496E1,6.456777E-1,8.4269214E-1,-1.3188714E1,1.0951275E0,1.0951275E0,-6.421232E0,9.6964806E-1,-1.6915676E-1,7.3843207E0,-5.620212E0,9.803492E0,-1.2966538E1,-4.4796124E0,5.9037733E0,-7.1023874E0,-5.52951E0,6.1863675E0,2.4583008E0,3.029549E1,-4.230112E-1,1.0293113E1,-1.0322799E1,-5.7603464E0,-4.060812E0,-8.700612E0,6.3055116E-1,-1.5091988E0,2.4194903E0,-2.0295098E0,3.1534898E0,-4.8011627E-2],"split_indices":[7,3,3,4,1,3,2,1,2,3,4,2,1,0,3,0,3,3,4,3,0,3,2,0,0,2,3,1,3,0,1,0,0,3,1,0,2,0,0,1,0,0,3,3,0,4,4,0,0,1,0,0,0,0,0,0,0,0,0,0,0,0,0,0,0,0,0,0,0,0,0,0,0],"split_type":[0,0,0,0,0,0,0,0,0,0,0,0,0,0,0,0,0,0,0,0,0,0,0,0,0,0,0,0,0,0,0,0,0,0,0,0,0,0,0,0,0,0,0,0,0,0,0,0,0,0,0,0,0,0,0,0,0,0,0,0,0,0,0,0,0,0,0,0,0,0,0,0,0],"sum_hessian":[3.22E2,1.41E2,1.81E2,7.5E1,6.6E1,1.46E2,3.5E1,3.5E1,4E1,1.1E1,5.5E1,1.04E2,4.2E1,1E1,2.5E1,1.4E1,2.1E1,1.6E1,2.4E1,9E0,2E0,4.4E1,1.1E1,5.3E1,5.1E1,2.8E1,1.4E1,1.1E1,1.4E1,1.5E1,6E0,9E0,7E0,1.3E1,1.1E1,6E0,3E0,1E0,1E0,5E0,3.9E1,2E0,9E0,1.4E1,1.4E1,8E0,6E0,7E0,4E0,6E0,8E0,4E0,2E0,9E0,4E0,6E0,5E0,2E0,1E0,3E0,2E0,4E0,5E0,6E0,8E0,4E0,4E0,3E0,3E0,2E0,2E0,2E0,4E0],"tree_param":{"num_deleted":"0","num_feature":"8","num_nodes":"73","size_leaf_vector":"1"}},{"base_weights":[3.550124E-1,3.263296E1,-2.4830832E1,1.4227448E1,8.849474E1,-3.439697E1,1.4920633E1,-1.1611779E1,4.9306664E1,9.8097305E1,2.5732782E1,-3.8338253E1,-1.9034904E1,4.3021122E1,2.458094E0,-3.0192675E1,2.4388645E1,1.00828926E2,1.8467163E1,3.1908533E1,1.0426982E2,1.2209004E0,8.775441E0,-1.22387085E1,-9.363483E0,-2.4672283E1,-6.0297E0,5.1302486E1,2.2822989E1,-1.0263696E1,1.2471653E1,-3.7142185E1,-6.2073307E0,1.2381355E2,2.1734722E0,2.3346E1,4.684588E1,7.7983505E1,-2.009406E1,-1.7131805E-1,1.9222214E1,3.2657124E1,1.5203641E1,-5.376797E0,-8.937774E0,-1.1449468E1,-1.2970515E0,2.965499E1,7.028082E1,9.159348E-1,8.100654E0,-1.5785525E1,6.2397003E-1,6.384753E0,2.3368502E1,-1.235112E1,1.0308037E0,4.4717514E1,7.211863E0,-4.5519104E0,5.7907896E0,-1.3507558E0,5.8309334E1,-7.0582314E0,-1.7325357E0,-2.9232056E0,2.8461125E0,-1.0003473E0,-4.7243867E0,4.8867646E-1,-1.1696286E0,1.7192436E1,2.524403E0,3.7239351E0,2.7902437E1,-5.7867155E0,-2.2379208E0,1.9355927E0,-1.6236078E0,5.866204E0,-2.9939118E-1,2.801625E0,8.882626E0],"categories":[],"categories_nodes":[],"categories_segments":[],"categories_sizes":[],"default_left":[0,0,0,0,0,0,0,0,0,0,0,0,0,0,0,0,0,0,0,0,0,0,0,0,0,0,0,0,0,0,0,0,0,0,0,0,0,0,0,0,0,0,0,0,0,0,0,0,0,0,0,0,0,0,0,0,0,0,0,0,0,0,0,0,0,0,0,0,0,0,0,0,0,0,0,0,0,0,0,0,0,0,0],"id":1,"left_children":[1,3,5,7,9,11,13,15,17,19,21,23,25,27,29,31,33,35,37,39,41,-1,-1,-1,-1,43,45,47,49,51,53,55,-1,57,59,-1,-1,61,63,65,-1,-1,-1,-1,-1,67,69,71,73,-1,-1,75,77,79,81,-1,-1,-1,-1,-1,-1,-1,-1,-1,-1,-1,-1,-1,-1,-1,-1,-1,-1,-1,-1,-1,-1,-1,-1,-1,-1,-1,-1],"loss_changes":[2.6339228E5,1.4474033E5,6.9721984E4,9.846589E4,1.8569375E4,8.170547E3,1.2501576E4,4.287833E4,7.122832E4,8.9294375E3,3.383108E2,7.582344E2,2.1973213E3,6.6907227E2,3.4401555E3,2.0048008E3,4.8323207E4,9.488266E3,7.041769E4,4.1384355E3,1.1208125E3,0E0,0E0,0E0,0E0,2.2635938E2,2.6729788E2,7.916582E2,3.3066943E2,7.312877E2,8.45718E2,3.9009824E3,0E0,6.4918125E3,5.938369E3,0E0,0E0,1.1607273E5,7.982095E2,3.6981168E2,0E0,0E0,0E0,0E0,0E0,1.2189929E2,5.963852E1,2.4545762E3,2.7910088E3,0E0,0E0,8.94657E1,2.1080734E2,1.0889894E3,1.6123706E2,0E0,0E0,0E0,0E0,0E0,0E0,0E0,0E0,0E0,0E0,0E0,0E0,0E0,0E0,0E0,0E0,0E0,0E0,0E0,0E0,0E0,0E0,0E0,0E0,0E0,0E0,0E0,0E0],"parents":[2147483647,0,0,1,1,2,2,3,3,4,4,5,5,6,6,7,7,8,8,9,9,10,10,11,11,12,12,13,13,14,14,15,15,16,16,17,17,18,18,19,19,20,20,25,25,26,26,27,27,28,28,29,29,30,30,31,31,33,33,34,34,37,37,38,38,39,39,45,45,46,46,47,47,48,48,51,51,52,52,53,53,54,54],"right_children":[2,4,6,8,10,12,14,16,18,20,22,24,26,28,30,32,34,36,38,40,42,-1,-1,-1,-1,44,46,48,50,52,54,56,-1,58,60,-1,-1,62,64,66,-1,-1,-1,-1,-1,68,70,72,74,-1,-1,76,78,80,82,-1,-1,-1,-1,-1,-1,-1,-1,-1,-1,-1,-1,-1,-1,-1,-1,-1,-1,-1,-1,-1,-1,-1,-1,-1,-1,-1,-1],"split_conditions":[8.5615987E-1,6.456777E-1,1.236721E0,1.0889466E0,1.0951275E0,6.456777E-1,7.938117E-1,-2.530122E-1,7.938117E-1,-1.6915676E-1,1.0397066E0,5.4634266E-2,1.0889466E0,9.6964806E-1,1.6307501E0,-1.6915676E-1,7.938117E-1,-1.4238021E-1,-2.530122E-1,1.0397066E0,2.0247788E0,1.2209004E0,8.775441E0,-1.22387085E1,-9.363483E0,7.938117E-1,8.4269214E-1,1.0889466E0,-1.6915676E-1,1.0889466E0,2.0247788E0,4.486632E-1,-6.2073307E0,9.6964806E-1,-5.3640914E-1,2.3346E1,4.684588E1,-1.4238021E-1,2.5164872E-1,9.6964806E-1,1.9222214E1,3.2657124E1,1.5203641E1,-5.376797E0,-8.937774E0,1.0951275E0,1.0951275E0,-1.6915676E-1,1.0951275E0,9.159348E-1,8.100654E0,1.0951275E0,9.6964806E-1,-1.6915676E-1,1.0951275E0,-1.235112E1,1.0308037E0,4.4717514E1,7.211863E0,-4.5519104E0,5.7907896E0,-1.3507558E0,5.8309334E1,-7.0582314E0,-1.7325357E0,-2.9232056E0,2.8461125E0,-1.0003473E0,-4.7243867E0,4.8867646E-1,-1.1696286E0,1.7192436E1,2.524403E0,3.7239351E0,2.7902437E1,-5.7867155E0,-2.2379208E0,1.9355927E0,-1.6236078E0,5.866204E0,-2.9939118E-1,2.801625E0,8.882626E0],"split_indices":[7,3,3,1,4,3,2,4,2,1,3,3,1,0,3,1,2,3,4,3,3,0,0,0,0,2,3,1,1,1,3,3,0,0,3,0,0,3,3,0,0,0,0,0,0,4,4,1,4,0,0,4,0,1,4,0,0,0,0,0,0,0,0,0,0,0,0,0,0,0,0,0,0,0,0,0,0,0,0,0,0,0,0],"split_type":[0,0,0,0,0,0,0,0,0,0,0,0,0,0,0,0,0,0,0,0,0,0,0,0,0,0,0,0,0,0,0,0,0,0,0,0,0,0,0,0,0,0,0,0,0,0,0,0,0,0,0,0,0,0,0,0,0,0,0,0,0,0,0,0,0,0,0,0,0,0,0,0,0,0,0,0,0,0,0,0,0,0,0],"sum_hessian":[3.22E2,1.41E2,1.81E2,1.07E2,3.4E1,1.46E2,3.5E1,6.2E1,4.5E1,2.9E1,5E0,1.15E2,3.1E1,1E1,2.5E1,4.1E1,2.1E1,1.6E1,2.9E1,3E0,2.6E1,1E0,4E0,8.2E1,3.3E1,2.1E1,1E1,6E0,4E0,1.1E1,1.4E1,2.2E1,1.9E1,3E0,1.8E1,1.3E1,3E0,1.1E1,1.8E1,2E0,1E0,2.3E1,3E0,1.1E1,1E1,4E0,6E0,4E0,2E0,1E0,3E0,7E0,4E0,1E1,4E0,2E1,2E0,2E0,1E0,9E0,9E0,7E0,4E0,1.4E1,4E0,1E0,1E0,2E0,2E0,3E0,3E0,1E0,3E0,1E0,1E0,4E0,3E0,2E0,2E0,3E0,7E0,2E0,2E0],"tree_param":{"num_deleted":"0","num_feature":"8","num_nodes":"83","size_leaf_vector":"1"}},{"base_weights":[1.0490613E0,2.446985E1,-1.7230066E1,2.5930936E0,4.8920055E1,-2.4365784E1,1.238606E1,-1.962484E1,2.2038277E1,-2.2553399E0,5.9012638E1,-2.6484049E1,-1.0395052E1,3.560204E1,2.0875278E0,-9.475129E0,-1.057899E1,6.9681725E1,-1.1240801E1,-1.2362723E1,1.6338882E1,6.604202E1,2.7734716E1,-2.2718822E1,-2.983546E1,-1.4083973E1,-1.0052141E0,4.3246483E1,1.777941E1,-4.435709E0,1.4902053E1,-1.6719198E1,4.9670553E0,4.132605E1,9.641611E1,-2.2766678E1,3.1427898E0,-2.0542788E1,1.561911E0,4.89773E1,7.662866E1,2.153682E1,1.174484E1,-7.6788564E0,-1.6856705E1,-9.68466E0,-7.3237414E0,-9.301469E0,-5.466273E0,1.262413E0,-3.0215378E0,2.4701857E1,5.9738697E1,7.78545E-1,6.2780066E0,-8.549863E0,3.2508E0,8.128897E0,1.8694798E1,-5.73859E0,-3.2666085E0,-2.7816029E0,8.112944E0,7.8476224E0,1.7261198E1,4.5349285E1,2.0100014E1,-8.807054E0,-3.5948036E0,4.6696353E0,-3.5622334E0,-7.5836067E0,-3.2013566E0,-1.9661785E0,5.1037903E0,1.0297916E0,2.5778717E1,3.2047276E1,1.2934928E1,3.1464082E-1,6.669335E0,-5.5843363E0,-2.9786034E0,-3.4560966E0,-1.566697E0,1.2226434E0,-1.0765171E0,-1.0677438E0,-2.1130715E-1,1.461357E1,1.9564116E0,3.1653445E0,2.3717072E1,-4.1685343E0,-2.6662827E-1,-1.2988855E0,2.1446671E0,7.0682893E0,-4.85808E-1,2.2412996E0,7.1060996E0],"categories":[],"categories_nodes":[],"categories_segments":[],"categories_sizes":[],"default_left":[0,0,0,0,0,0,0,0,0,0,0,0,0,0,0,0,0,0,0,0,0,0,0,0,0,0,0,0,0,0,0,0,0,0,0,0,0,0,0,0,0,0,0,0,0,0,0,0,0,0,0,0,0,0,0,0,0,0,0,0,0,0,0,0,0,0,0,0,0,0,0,0,0,0,0,0,0,0,0,0,0,0,0,0,0,0,0,0,0,0,0,0,0,0,0,0,0,0,0,0,0],"id":2,"left_children":[1,3,5,7,9,11,13,15,17,19,21,23,25,27,29,-1,31,33,35,37,-1,39,41,43,45,47,49,51,53,55,57,59,61,63,65,67,69,71,73,75,77,-1,79,-1,81,-1,-1,83,-1,85,87,89,91,-1,-1,93,95,97,99,-1,-1,-1,-1,-1,-1,-1,-1,-1,-1,-1,-1,-1,-1,-1,-1,-1,-1,-1,-1,-1,-1,-1,-1,-1,-1,-1,-1,-1,-1,-1,-1,-1,-1,-1,-1,-1,-1,-1,-1,-1,-1],"loss_changes":[1.3870166E5,7.582768E4,3.876428E4,3.326691E4,3.4738047E4,4.0749688E3,8.5329375E3,3.5603047E3,6.5790016E4,7.5525903E3,1.0480781E4,9.247656E2,7.132483E2,7.297881E2,2.2394978E3,0E0,2.1830764E3,8.902719E3,4.2161387E3,1.2850343E3,0E0,4.3765312E3,7.609993E3,6.480508E2,6.1101562E1,1.27292725E2,3.582032E1,6.652373E2,1.8463745E2,5.9701654E2,7.9231445E1,1.648584E1,2.4511443E3,9.53709E2,2.755789E3,6.431831E2,2.4234238E3,5.7502686E1,7.3847754E2,3.3364137E4,2.1704094E4,0E0,1.0982999E3,0E0,1.0744873E2,0E0,0E0,2.1296326E1,0E0,6.9206894E1,2.4760284E0,1.8649028E3,2.0165049E3,0E0,0E0,4.7905676E2,2.3779605E2,7.9033234E2,1.03191895E2,0E0,0E0,0E0,0E0,0E0,0E0,0E0,0E0,0E0,0E0,0E0,0E0,0E0,0E0,0E0,0E0,0E0,0E0,0E0,0E0,0E0,0E0,0E0,0E0,0E0,0E0,0E0,0E0,0E0,0E0,0E0,0E0,0E0,0E0,0E0,0E0,0E0,0E0,0E0,0E0,0E0,0E0],"parents":[2147483647,0,0,1,1,2,2,3,3,4,4,5,5,6,6,7,7,8,8,9,9,10,10,11,11,12,12,13,13,14,14,16,16,17,17,18,18,19,19,21,21,22,22,23,23,24,24,25,25,26,26,27,27,28,28,29,29,30,30,31,31,32,32,33,33,34,34,35,35,36,36,37,37,38,38,39,39,40,40,42,42,44,44,47,47,49,49,50,50,51,51,52,52,55,55,56,56,57,57,58,58],"right_children":[2,4,6,8,10,12,14,16,18,20,22,24,26,28,30,-1,32,34,36,38,-1,40,42,44,46,48,50,52,54,56,58,60,62,64,66,68,70,72,74,76,78,-1,80,-1,82,-1,-1,84,-1,86,88,90,92,-1,-1,94,96,98,100,-1,-1,-1,-1,-1,-1,-1,-1,-1,-1,-1,-1,-1,-1,-1,-1,-1,-1,-1,-1,-1,-1,-1,-1,-1,-1,-1,-1,-1,-1,-1,-1,-1,-1,-1,-1,-1,-1,-1,-1,-1,-1],"split_conditions":[8.5615987E-1,-1.4238021E-1,1.236721E0,-2.530122E-1,-1.6915676E-1,8.4269214E-1,7.938117E-1,-1.6915676E-1,7.938117E-1,1.0397066E0,1.0951275E0,7.938117E-1,1.0889466E0,9.6964806E-1,1.8277645E0,-9.475129E0,-5.3640914E-1,-7.334236E-1,1.0951275E0,4.486632E-1,1.6338882E1,1.0889466E0,7.938117E-1,1.0889466E0,5.4634266E-2,7.938117E-1,1.0951275E0,1.0889466E0,-1.6915676E-1,1.0889466E0,9.6964806E-1,-9.304381E-1,1.0889466E0,1.0951275E0,1.0889466E0,-7.334236E-1,1.0889466E0,7.938117E-1,7.938117E-1,6.456777E-1,-2.530122E-1,2.153682E1,1.0397066E0,-7.6788564E0,2.5164872E-1,-9.68466E0,-7.3237414E0,1.0951275E0,-5.466273E0,7.938117E-1,7.938117E-1,-1.6915676E-1,1.0951275E0,7.78545E-1,6.2780066E0,1.0951275E0,1.4337355E0,-1.6915676E-1,1.0951275E0,-5.73859E0,-3.2666085E0,-2.7816029E0,8.112944E0,7.8476224E0,1.7261198E1,4.5349285E1,2.0100014E1,-8.807054E0,-3.5948036E0,4.6696353E0,-3.5622334E0,-7.5836067E0,-3.2013566E0,-1.9661785E0,5.1037903E0,1.0297916E0,2.5778717E1,3.2047276E1,1.2934928E1,3.1464082E-1,6.669335E0,-5.5843363E0,-2.9786034E0,-3.4560966E0,-1.566697E0,1.2226434E0,-1.0765171E0,-1.0677438E0,-2.1130715E-1,1.461357E1,1.9564116E0,3.1653445E0,2.3717072E1,-4.1685343E0,-2.6662827E-1,-1.2988855E0,2.1446671E0,7.0682893E0,-4.85808E-1,2.2412996E0,7.1060996E0],"split_indices":[7,3,3,4,1,3,2,1,2,3,4,2,1,0,3,0,3,3,4,3,0,1,2,1,3,2,4,1,1,1,0,3,1,4,1,3,1,2,2,3,4,0,3,0,3,0,0,4,0,2,2,1,4,0,0,4,3,1,4,0,0,0,0,0,0,0,0,0,0,0,0,0,0,0,0,0,0,0,0,0,0,0,0,0,0,0,0,0,0,0,0,0,0,0,0,0,0,0,0,0,0],"split_type":[0,0,0,0,0,0,0,0,0,0,0,0,0,0,0,0,0,0,0,0,0,0,0,0,0,0,0,0,0,0,0,0,0,0,0,0,0,0,0,0,0,0,0,0,0,0,0,0,0,0,0,0,0,0,0,0,0,0,0,0,0,0,0,0,0,0,0,0,0,0,0,0,0,0,0,0,0,0,0,0,0,0,0,0,0,0,0,0,0,0,0,0,0,0,0,0,0,0,0,0,0],"sum_hessian":[3.22E2,1.41E2,1.81E2,7.5E1,6.6E1,1.46E2,3.5E1,3.5E1,4E1,1.1E1,5.5E1,1.26E2,2E1,1E1,2.5E1,1.4E1,2.1E1,1.6E1,2.4E1,1E1,1E0,4.4E1,1.1E1,6.3E1,6.3E1,1.4E1,6E0,6E0,4E0,1.7E1,8E0,1.5E1,6E0,9E0,7E0,1.3E1,1.1E1,6E0,4E0,1.9E1,2.5E1,2E0,9E0,4E1,2.3E1,4E1,2.3E1,8E0,6E0,3E0,3E0,4E0,2E0,1E0,3E0,1.1E1,6E0,4E0,4E0,9E0,6E0,4E0,2E0,6E0,3E0,1E0,6E0,7E0,6E0,6E0,5E0,3E0,3E0,3E0,1E0,9E0,1E1,1.2E1,1.3E1,5E0,4E0,1.7E1,6E0,4E0,4E0,2E0,1E0,2E0,1E0,1E0,3E0,1E0,1E0,6E0,5E0,2E0,4E0,1E0,3E0,2E0,2E0],"tree_param":{"num_deleted":"0","num_feature":"8","num_nodes":"101","size_leaf_vector":"1"}},{"base_weights":[1.3321602E0,1.836212E1,-1.1962271E1,-3.689978E0,3.1144331E1,-1.7361301E1,1.0416059E1,-1.7691235E1,9.442975E0,-5.4778795E0,3.8541813E1,-2.0202684E1,-1.2093686E1,2.951315E1,1.9359028E0,-7.192143E0,-1.2266265E1,3.584927E1,-9.752232E0,-1.4166229E1,3.689371E1,7.354999E1,3.1375565E1,-1.7495972E1,-6.7611427E0,-1.4556589E1,-6.3591805E0,3.6480022E1,1.3856897E1,-6.512104E0,8.5652485E0,-4.1891713E0,-2.4266233E0,2.5040686E1,1.3791945E1,-1.9568766E1,3.7374668E0,-6.1376863E0,-4.950798E0,1.3888049E1,2.714122E0,-2.6283853E0,1.0196055E2,8.414859E0,4.3202248E1,-2.2265465E1,-1.4653308E1,-1.0854282E1,-5.247828E0,7.4150085E-2,-1.151326E1,2.0605295E1,5.0777893E1,6.617638E-1,4.8654547E0,-2.9606092E0,1.6086578E-1,2.6665595E0,1.2201423E1,3.5793676E0,9.156035E0,-7.629125E0,-2.5863104E0,3.7178302E0,-2.4048078E0,-3.9992104E0,3.199792E0,3.7239017E1,1.7819681E1,1.0824439E1,-2.6238282E0,1.4800848E1,3.289828E0,-8.210221E-1,-7.0154796E0,-5.8087482E0,-3.5291965E0,-3.8893454E0,-2.1207347E0,7.754887E-1,-1.1131817E0,-4.516853E0,-7.3045236E-1,1.2421535E1,1.5162187E0,2.6905427E0,2.015951E1,1.1195405E0,-1.0391076E0,1.7930672E0,4.4114687E-2,6.0080457E0,2.615969E0],"categories":[],"categories_nodes":[],"categories_segments":[],"categories_sizes":[],"default_left":[0,0,0,0,0,0,0,0,0,0,0,0,0,0,0,0,0,0,0,0,0,0,0,0,0,0,0,0,0,0,0,0,0,0,0,0,0,0,0,0,0,0,0,0,0,0,0,0,0,0,0,0,0,0,0,0,0,0,0,0,0,0,0,0,0,0,0,0,0,0,0,0,0,0,0,0,0,0,0,0,0,0,0,0,0,0,0,0,0,0,0,0,0],"id":3,"left_children":[1,3,5,7,9,11,13,15,17,19,21,23,25,27,29,-1,31,33,35,37,39,41,43,45,-1,47,49,51,53,55,57,-1,-1,59,-1,61,63,-1,65,-1,-1,-1,67,69,71,73,75,77,-1,79,81,83,85,-1,-1,-1,87,89,91,-1,-1,-1,-1,-1,-1,-1,-1,-1,-1,-1,-1,-1,-1,-1,-1,-1,-1,-1,-1,-1,-1,-1,-1,-1,-1,-1,-1,-1,-1,-1,-1,-1,-1],"loss_changes":[7.3348016E4,4.0141117E4,2.217031E4,9.912585E3,2.4593219E4,1.9558711E3,5.7729316E3,5.92083E2,1.4542088E4,6.4128726E3,1.6508125E4,1.9964844E2,6.701035E2,6.9432715E2,1.5119014E3,0E0,5.202637E-1,1.6189941E2,2.324313E3,7.10574E2,3.6643628E2,2.8955422E4,1.7015598E4,3.245254E2,0E0,2.1234033E2,5.976958E2,5.425303E2,1.01781494E2,2.7036887E2,2.8919434E2,0E0,0E0,2.105166E2,0E0,4.224817E2,9.131809E2,0E0,1.058254E3,0E0,0E0,0E0,1.1189375E3,1.1235633E4,7.7637812E3,2.8578906E2,2.2122852E2,6.0114502E1,0E0,9.5117065E1,2.8498145E2,1.40805E3,1.4569238E3,0E0,0E0,0E0,7.764112E1,5.7503994E1,7.056702E1,0E0,0E0,0E0,0E0,0E0,0E0,0E0,0E0,0E0,0E0,0E0,0E0,0E0,0E0,0E0,0E0,0E0,0E0,0E0,0E0,0E0,0E0,0E0,0E0,0E0,0E0,0E0,0E0,0E0,0E0,0E0,0E0,0E0,0E0],"parents":[2147483647,0,0,1,1,2,2,3,3,4,4,5,5,6,6,7,7,8,8,9,9,10,10,11,11,12,12,13,13,14,14,16,16,17,17,18,18,19,19,20,20,21,21,22,22,23,23,25,25,26,26,27,27,28,28,29,29,30,30,33,33,35,35,36,36,38,38,42,42,43,43,44,44,45,45,46,46,47,47,49,49,50,50,51,51,52,52,56,56,57,57,58,58],"right_children":[2,4,6,8,10,12,14,16,18,20,22,24,26,28,30,-1,32,34,36,38,40,42,44,46,-1,48,50,52,54,56,58,-1,-1,60,-1,62,64,-1,66,-1,-1,-1,68,70,72,74,76,78,-1,80,82,84,86,-1,-1,-1,88,90,92,-1,-1,-1,-1,-1,-1,-1,-1,-1,-1,-1,-1,-1,-1,-1,-1,-1,-1,-1,-1,-1,-1,-1,-1,-1,-1,-1,-1,-1,-1,-1,-1,-1,-1],"split_conditions":[8.5615987E-1,-5.3640914E-1,1.236721E0,-2.530122E-1,-1.6915676E-1,2.5164872E-1,7.938117E-1,-1.6915676E-1,7.938117E-1,8.4269214E-1,7.938117E-1,7.938117E-1,1.0889466E0,9.6964806E-1,1.6307501E0,-7.192143E0,-9.304381E-1,1.0951275E0,1.0951275E0,7.938117E-1,9.6964806E-1,-2.530122E-1,2.5164872E-1,-1.6915676E-1,-6.7611427E0,7.938117E-1,1.0951275E0,1.0889466E0,-1.6915676E-1,1.0889466E0,1.8277645E0,-4.1891713E0,-2.4266233E0,9.6964806E-1,1.3791945E1,1.0889466E0,1.0889466E0,-6.1376863E0,2.5164872E-1,1.3888049E1,2.714122E0,-2.6283853E0,1.0951275E0,-2.530122E-1,1.0951275E0,-1.3244671E0,-9.304381E-1,8.4269214E-1,-5.247828E0,7.938117E-1,8.4269214E-1,-1.6915676E-1,1.0951275E0,6.617638E-1,4.8654547E0,-2.9606092E0,9.6964806E-1,-1.6915676E-1,-1.6915676E-1,3.5793676E0,9.156035E0,-7.629125E0,-2.5863104E0,3.7178302E0,-2.4048078E0,-3.9992104E0,3.199792E0,3.7239017E1,1.7819681E1,1.0824439E1,-2.6238282E0,1.4800848E1,3.289828E0,-8.210221E-1,-7.0154796E0,-5.8087482E0,-3.5291965E0,-3.8893454E0,-2.1207347E0,7.754887E-1,-1.1131817E0,-4.516853E0,-7.3045236E-1,1.2421535E1,1.5162187E0,2.6905427E0,2.015951E1,1.1195405E0,-1.0391076E0,1.7930672E0,4.4114687E-2,6.0080457E0,2.615969E0],"split_indices":[7,3,3,4,1,3,2,1,2,3,2,2,1,0,3,0,3,4,4,2,0,4,3,1,0,2,4,1,1,1,3,0,0,0,0,1,1,0,3,0,0,0,4,4,4,3,3,3,0,2,3,1,4,0,0,0,0,1,1,0,0,0,0,0,0,0,0,0,0,0,0,0,0,0,0,0,0,0,0,0,0,0,0,0,0,0,0,0,0,0,0,0,0],"split_type":[0,0,0,0,0,0,0,0,0,0,0,0,0,0,0,0,0,0,0,0,0,0,0,0,0,0,0,0,0,0,0,0,0,0,0,0,0,0,0,0,0,0,0,0,0,0,0,0,0,0,0,0,0,0,0,0,0,0,0,0,0,0,0,0,0,0,0,0,0,0,0,0,0,0,0,0,0,0,0,0,0,0,0,0,0,0,0,0,0,0,0,0,0],"sum_hessian":[3.22E2,1.41E2,1.81E2,5.2E1,8.9E1,1.46E2,3.5E1,2.5E1,2.7E1,1.5E1,7.4E1,9.3E1,5.3E1,1E1,2.5E1,1E1,1.5E1,1.1E1,1.6E1,1.3E1,2E0,1.1E1,6.3E1,4.7E1,4.6E1,3.6E1,1.7E1,6E0,4E0,1.1E1,1.4E1,9E0,6E0,7E0,4E0,9E0,7E0,7E0,6E0,1E0,1E0,3E0,8E0,2.2E1,4.1E1,1.5E1,3.2E1,1.8E1,1.8E1,8E0,9E0,4E0,2E0,1E0,3E0,7E0,4E0,6E0,8E0,3E0,4E0,5E0,4E0,4E0,3E0,4E0,2E0,4E0,4E0,8E0,1.4E1,3.4E1,7E0,1E0,1.4E1,1E1,2.2E1,1E1,8E0,5E0,3E0,6E0,3E0,1E0,3E0,1E0,1E0,2E0,2E0,2E0,4E0,1E0,7E0],"tree_param":{"num_deleted":"0","num_feature":"8","num_nodes":"93","size_leaf_vector":"1"}},{"base_weights":[1.2462008E0,1.3502807E1,-8.323493E0,1.6108143E0,2.6790697E1,-1.2430316E1,8.677243E0,-1.1146625E1,1.277318E1,4.5265007E-1,3.1956158E1,-1.5648403E1,-9.898906E0,2.4506025E1,1.6467106E0,-4.9781885E0,-6.9258666E0,3.9404953E1,-5.8473544E0,-8.8647175E0,3.1359657E1,6.954944E1,2.7726877E1,-5.1293097E0,-1.2170278E1,-1.299581E1,-7.8803906E0,3.0791414E1,1.0805275E1,-4.7984867E0,6.6930876E0,-2.4748454E0,-9.81697E0,7.1897095E1,2.7306847E1,-1.2609223E1,2.5287724E0,-1.4347801E1,-5.1207274E-1,1.1804842E1,2.3070042E0,-1.115989E0,2.6639036E1,3.1869326E1,7.141668E0,-8.611019E0,-4.484015E0,-4.394437E0,-7.1456604E0,-5.032999E0,-1.0753236E1,1.7211254E1,4.3161205E1,5.6249887E-1,3.7707288E0,-7.278164E0,1.2869415E-1,3.280091E0,1.2863063E1,-2.540482E0,2.5897093E0,-1.179608E0,-3.5986826E0,6.784815E0,3.2961037E1,4.445144E0,1.1303945E1,-5.0598726E0,-1.7828226E0,3.05643E0,-2.0485716E0,-4.6575503E0,-1.2691453E0,-2.1211538E0,3.8582532E0,1.22805395E1,6.406475E0,4.8885345E-3,4.2791348E0,-1.2905885E0,-3.6609254E0,-2.9742641E0,-8.8439256E-1,-2.353391E0,-5.657487E-1,-3.572717E0,-1.4746974E0,1.0558304E1,1.1750691E0,2.286961E0,1.7135582E1,-2.6869104E0,-1.0082606E0,8.95633E-1,-8.312859E-1,3.6292593E0,-4.6159202E-1,1.2698456E0,5.161686E0],"categories":[],"categories_nodes":[],"categories_segments":[],"categories_sizes":[],"default_left":[0,0,0,0,0,0,0,0,0,0,0,0,0,0,0,0,0,0,0,0,0,0,0,0,0,0,0,0,0,0,0,0,0,0,0,0,0,0,0,0,0,0,0,0,0,0,0,0,0,0,0,0,0,0,0,0,0,0,0,0,0,0,0,0,0,0,0,0,0,0,0,0,0,0,0,0,0,0,0,0,0,0,0,0,0,0,0,0,0,0,0,0,0,0,0,0,0,0,0],"id":4,"left_children":[1,3,5,7,9,11,13,15,17,19,21,23,25,27,29,-1,31,33,35,37,39,41,43,-1,45,47,49,51,53,55,57,59,61,63,65,67,69,71,73,-1,-1,-1,-1,75,77,79,-1,-1,81,83,85,87,89,-1,-1,91,93,95,97,-1,-1,-1,-1,-1,-1,-1,-1,-1,-1,-1,-1,-1,-1,-1,-1,-1,-1,-1,-1,-1,-1,-1,-1,-1,-1,-1,-1,-1,-1,-1,-1,-1,-1,-1,-1,-1,-1,-1,-1],"loss_changes":[3.7997695E4,2.2395613E4,1.2814922E4,1.096502E4,9.100758E3,1.0426035E3,3.9658975E3,7.127803E2,2.0562229E4,3.7336575E3,6.9751914E3,1.0948828E2,4.2893457E2,6.145498E2,8.777639E2,0E0,2.5880847E2,4.7193066E3,1.4478428E3,4.506353E2,2.647505E2,7.3815273E3,4.2066055E3,0E0,8.869873E1,2.0465039E2,3.8760522E2,4.3302783E2,5.5190063E1,1.4755048E2,2.736797E2,7.388038E2,1.1950818E2,5.0005723E3,1.2554648E3,2.970791E2,9.2962164E2,5.791748E0,5.2946014E2,0E0,0E0,0E0,0E0,3.2246602E3,5.072447E2,1.3324371E2,0E0,0E0,7.536679E1,2.4181873E2,1.1688623E2,1.0575156E3,1.0526274E3,0E0,0E0,2.2490997E1,4.969034E1,4.859913E2,1.1455835E2,0E0,0E0,0E0,0E0,0E0,0E0,0E0,0E0,0E0,0E0,0E0,0E0,0E0,0E0,0E0,0E0,0E0,0E0,0E0,0E0,0E0,0E0,0E0,0E0,0E0,0E0,0E0,0E0,0E0,0E0,0E0,0E0,0E0,0E0,0E0,0E0,0E0,0E0,0E0,0E0],"parents":[2147483647,0,0,1,1,2,2,3,3,4,4,5,5,6,6,7,7,8,8,9,9,10,10,11,11,12,12,13,13,14,14,16,16,17,17,18,18,19,19,20,20,21,21,22,22,24,24,25,25,26,26,27,27,28,28,29,29,30,30,31,31,32,32,33,33,34,34,35,35,36,36,37,37,38,38,43,43,44,44,45,45,48,48,49,49,50,50,51,51,52,52,55,55,56,56,57,57,58,58],"right_children":[2,4,6,8,10,12,14,16,18,20,22,24,26,28,30,-1,32,34,36,38,40,42,44,-1,46,48,50,52,54,56,58,60,62,64,66,68,70,72,74,-1,-1,-1,-1,76,78,80,-1,-1,82,84,86,88,90,-1,-1,92,94,96,98,-1,-1,-1,-1,-1,-1,-1,-1,-1,-1,-1,-1,-1,-1,-1,-1,-1,-1,-1,-1,-1,-1,-1,-1,-1,-1,-1,-1,-1,-1,-1,-1,-1,-1,-1,-1,-1,-1,-1,-1],"split_conditions":[8.5615987E-1,-1.4238021E-1,1.236721E0,-2.530122E-1,-1.6915676E-1,-3.3939466E-1,7.938117E-1,-1.6915676E-1,7.938117E-1,8.4269214E-1,7.938117E-1,1.0889466E0,-1.6915676E-1,9.6964806E-1,1.6307501E0,-4.9781885E0,9.6964806E-1,1.0889466E0,1.0951275E0,7.938117E-1,9.6964806E-1,1.0889466E0,1.0951275E0,-5.1293097E0,9.6964806E-1,8.4269214E-1,1.0951275E0,1.0889466E0,-1.6915676E-1,1.0889466E0,2.0247788E0,-7.334236E-1,7.938117E-1,-1.1274525E0,1.0951275E0,-7.334236E-1,1.0889466E0,6.456777E-1,4.486632E-1,1.1804842E1,2.3070042E0,-1.115989E0,2.6639036E1,9.6964806E-1,1.0397066E0,7.938117E-1,-4.484015E0,-4.394437E0,1.0951275E0,1.0889466E0,8.4269214E-1,-1.6915676E-1,1.0951275E0,5.6249887E-1,3.7707288E0,1.0951275E0,9.6964806E-1,-1.6915676E-1,1.0951275E0,-2.540482E0,2.5897093E0,-1.179608E0,-3.5986826E0,6.784815E0,3.2961037E1,4.445144E0,1.1303945E1,-5.0598726E0,-1.7828226E0,3.05643E0,-2.0485716E0,-4.6575503E0,-1.2691453E0,-2.1211538E0,3.8582532E0,1.22805395E1,6.406475E0,4.8885345E-3,4.2791348E0,-1.2905885E0,-3.6609254E0,-2.9742641E0,-8.8439256E-1,-2.353391E0,-5.657487E-1,-3.572717E0,-1.4746974E0,1.0558304E1,1.1750691E0,2.286961E0,1.7135582E1,-2.6869104E0,-1.0082606E0,8.95633E-1,-8.312859E-1,3.6292593E0,-4.6159202E-1,1.2698456E0,5.161686E0],"split_indices":[7,3,3,4,1,3,2,1,2,3,2,1,1,0,3,0,0,1,4,2,0,1,4,0,0,3,4,1,1,1,3,3,2,3,4,3,1,3,3,0,0,0,0,0,3,2,0,0,4,1,3,1,4,0,0,4,0,1,4,0,0,0,0,0,0,0,0,0,0,0,0,0,0,0,0,0,0,0,0,0,0,0,0,0,0,0,0,0,0,0,0,0,0,0,0,0,0,0,0],"split_type":[0,0,0,0,0,0,0,0,0,0,0,0,0,0,0,0,0,0,0,0,0,0,0,0,0,0,0,0,0,0,0,0,0,0,0,0,0,0,0,0,0,0,0,0,0,0,0,0,0,0,0,0,0,0,0,0,0,0,0,0,0,0,0,0,0,0,0,0,0,0,0,0,0,0,0,0,0,0,0,0,0,0,0,0,0,0,0,0,0,0,0,0,0,0,0,0,0,0,0],"sum_hessian":[3.22E2,1.41E2,1.81E2,7.5E1,6.6E1,1.46E2,3.5E1,3.5E1,4E1,1.1E1,5.5E1,6.2E1,8.4E1,1E1,2.5E1,1.4E1,2.1E1,1.6E1,2.4E1,9E0,2E0,4E0,5.1E1,4.1E1,2.1E1,3.1E1,5.3E1,6E0,4E0,1.1E1,1.4E1,9E0,1.2E1,3E0,1.3E1,1.3E1,1.1E1,5E0,4E0,1E0,1E0,1E0,3E0,4.2E1,9E0,1.1E1,1E1,2.3E1,8E0,2.8E1,2.5E1,4E0,2E0,1E0,3E0,7E0,4E0,1E1,4E0,6E0,3E0,4E0,8E0,2E0,1E0,7E0,6E0,7E0,6E0,6E0,5E0,4E0,1E0,3E0,1E0,2.1E1,2.1E1,5E0,4E0,6E0,5E0,4E0,4E0,1.4E1,1.4E1,2E1,5E0,1E0,3E0,1E0,1E0,4E0,3E0,2E0,2E0,3E0,7E0,2E0,2E0],"tree_param":{"num_deleted":"0","num_feature":"8","num_nodes":"99","size_leaf_vector":"1"}},{"base_weights":[1.209933E0,1.0144706E1,-5.7678013E0,-1.7175815E0,1.7017555E1,-8.910639E0,7.2256684E0,-9.4474125E0,5.5214605E0,-1.4676063E0,2.0734156E1,-3.8547845E0,-7.7473006E0,2.0380503E1,1.3822511E0,-3.8729615E0,-6.4765086E0,2.0554174E1,-5.414658E0,-7.3892016E0,2.6655708E1,4.3798313E1,1.6085655E1,-1.0452209E1,-6.070836E0,2.6004831E1,8.430342E0,-1.913717E0,7.8206043E0,-7.7561083E0,-1.1169882E0,2.3863022E0,6.683612E0,-1.0821203E1,2.0203562E0,-3.4069538E0,-1.7995332E0,1.0034116E1,1.9609532E0,-6.8635197E0,6.1448204E1,3.7169118E0,2.5011038E1,-1.144482E1,-5.4307013E0,-4.378957E0,-7.9324894E0,1.4394551E1,3.6687023E1,4.7812387E-1,9.741055E0,-4.3139186E0,2.474302E0,4.5624485E0,4.9961395E0,-9.9344164E-1,-2.7563653E0,-4.6207275E0,-9.4784933E-1,2.0920093E0,-1.4027979E0,-2.1874783E0,2.3861237E0,-2.553367E0,-2.8806153E-1,2.4192234E1,8.989798E0,6.9958158E0,-2.5406618E0,8.435597E0,2.302719E0,-3.9817402E0,-2.694405E0,-2.2604403E0,-6.721386E-1,-1.5212761E0,-4.0656194E-1,-2.7013626E0,-1.1862191E0,8.974558E0,9.1067797E-1,1.9439164E0,1.4565244E1,8.2371145E-1,3.3472812E0,-2.3429723E0,1.4511643E-1,-6.6502917E-1,1.4382244E0,-8.612349E-1,3.0871348E0],"categories":[],"categories_nodes":[],"categories_segments":[],"categories_sizes":[],"default_left":[0,0,0,0,0,0,0,0,0,0,0,0,0,0,0,0,0,0,0,0,0,0,0,0,0,0,0,0,0,0,0,0,0,0,0,0,0,0,0,0,0,0,0,0,0,0,0,0,0,0,0,0,0,0,0,0,0,0,0,0,0,0,0,0,0,0,0,0,0,0,0,0,0,0,0,0,0,0,0,0,0,0,0,0,0,0,0,0,0,0,0],"id":5,"left_children":[1,3,5,7,9,11,13,15,17,19,21,-1,23,25,27,-1,29,31,33,35,37,39,41,43,45,47,49,51,53,55,-1,-1,-1,57,59,-1,61,-1,-1,63,65,67,69,71,73,75,77,79,81,-1,83,85,87,-1,89,-1,-1,-1,-1,-1,-1,-1,-1,-1,-1,-1,-1,-1,-1,-1,-1,-1,-1,-1,-1,-1,-1,-1,-1,-1,-1,-1,-1,-1,-1,-1,-1,-1,-1,-1,-1],"loss_changes":[2.0195777E4,1.1606168E4,7.4966035E3,3.0178618E3,6.2136035E3,5.740029E2,2.7391196E3,1.8384155E2,4.714481E3,2.8615227E3,7.336506E3,0E0,4.625703E2,5.2009863E2,5.667022E2,0E0,2.748993E1,8.3532715E1,7.052243E2,2.900268E2,1.9128223E2,1.1151859E4,6.972365E3,1.5217578E2,1.9834131E2,3.4006934E2,2.9279297E1,2.0025226E2,1.1181091E2,3.3211792E1,0E0,0E0,0E0,3.023357E2,2.9794397E2,0E0,4.3295468E2,0E0,0E0,3.0735123E1,3.021543E3,6.8858916E3,1.777416E3,3.837744E1,4.353183E1,7.891315E1,1.094082E2,7.9068115E2,7.605237E2,0E0,9.001526E0,2.0504778E2,8.680299E1,0E0,3.6274103E2,0E0,0E0,0E0,0E0,0E0,0E0,0E0,0E0,0E0,0E0,0E0,0E0,0E0,0E0,0E0,0E0,0E0,0E0,0E0,0E0,0E0,0E0,0E0,0E0,0E0,0E0,0E0,0E0,0E0,0E0,0E0,0E0,0E0,0E0,0E0,0E0],"parents":[2147483647,0,0,1,1,2,2,3,3,4,4,5,5,6,6,7,7,8,8,9,9,10,10,12,12,13,13,14,14,16,16,17,17,18,18,19,19,20,20,21,21,22,22,23,23,24,24,25,25,26,26,27,27,28,28,29,29,33,33,34,34,36,36,39,39,40,40,41,41,42,42,43,43,44,44,45,45,46,46,47,47,48,48,50,50,51,51,52,52,54,54],"right_children":[2,4,6,8,10,12,14,16,18,20,22,-1,24,26,28,-1,30,32,34,36,38,40,42,44,46,48,50,52,54,56,-1,-1,-1,58,60,-1,62,-1,-1,64,66,68,70,72,74,76,78,80,82,-1,84,86,88,-1,90,-1,-1,-1,-1,-1,-1,-1,-1,-1,-1,-1,-1,-1,-1,-1,-1,-1,-1,-1,-1,-1,-1,-1,-1,-1,-1,-1,-1,-1,-1,-1,-1,-1,-1,-1,-1],"split_conditions":[8.5615987E-1,-5.3640914E-1,1.236721E0,-2.530122E-1,-1.6915676E-1,-9.304381E-1,7.938117E-1,-1.6915676E-1,7.938117E-1,8.4269214E-1,7.938117E-1,-3.8547845E0,-1.6915676E-1,9.6964806E-1,1.8277645E0,-3.8729615E0,-9.304381E-1,-1.3244671E0,1.0951275E0,7.938117E-1,9.6964806E-1,-2.530122E-1,4.486632E-1,8.4269214E-1,7.938117E-1,1.0889466E0,-1.6915676E-1,1.0889466E0,-1.6915676E-1,7.938117E-1,-1.1169882E0,2.3863022E0,6.683612E0,1.0889466E0,1.0889466E0,-3.4069538E0,2.5164872E-1,1.0034116E1,1.9609532E0,9.6964806E-1,1.0951275E0,-2.530122E-1,1.0951275E0,1.0951275E0,1.0951275E0,8.4269214E-1,6.456777E-1,-1.6915676E-1,1.0951275E0,4.7812387E-1,1.0951275E0,1.0951275E0,1.4337355E0,4.5624485E0,9.6964806E-1,-9.9344164E-1,-2.7563653E0,-4.6207275E0,-9.4784933E-1,2.0920093E0,-1.4027979E0,-2.1874783E0,2.3861237E0,-2.553367E0,-2.8806153E-1,2.4192234E1,8.989798E0,6.9958158E0,-2.5406618E0,8.435597E0,2.302719E0,-3.9817402E0,-2.694405E0,-2.2604403E0,-6.721386E-1,-1.5212761E0,-4.0656194E-1,-2.7013626E0,-1.1862191E0,8.974558E0,9.1067797E-1,1.9439164E0,1.4565244E1,8.2371145E-1,3.3472812E0,-2.3429723E0,1.4511643E-1,-6.6502917E-1,1.4382244E0,-8.612349E-1,3.0871348E0],"split_indices":[7,3,3,4,1,3,2,1,2,3,2,0,1,0,3,0,3,3,4,2,0,4,3,3,2,1,1,1,1,2,0,0,0,1,1,0,3,0,0,0,4,4,4,4,4,3,3,1,4,0,4,4,3,0,0,0,0,0,0,0,0,0,0,0,0,0,0,0,0,0,0,0,0,0,0,0,0,0,0,0,0,0,0,0,0,0,0,0,0,0,0],"split_type":[0,0,0,0,0,0,0,0,0,0,0,0,0,0,0,0,0,0,0,0,0,0,0,0,0,0,0,0,0,0,0,0,0,0,0,0,0,0,0,0,0,0,0,0,0,0,0,0,0,0,0,0,0,0,0,0,0,0,0,0,0,0,0,0,0,0,0,0,0,0,0,0,0,0,0,0,0,0,0,0,0,0,0,0,0,0,0,0,0,0,0],"sum_hessian":[3.22E2,1.41E2,1.81E2,5.2E1,8.9E1,1.46E2,3.5E1,2.5E1,2.7E1,1.5E1,7.4E1,3.1E1,1.15E2,1E1,2.5E1,1E1,1.5E1,1.1E1,1.6E1,1.3E1,2E0,1.1E1,6.3E1,4.2E1,7.3E1,6E0,4E0,1.7E1,8E0,9E0,6E0,2E0,9E0,9E0,7E0,7E0,6E0,1E0,1E0,3E0,8E0,2.7E1,3.6E1,3.4E1,8E0,4E1,3.3E1,4E0,2E0,1E0,3E0,1.1E1,6E0,1E0,7E0,3E0,6E0,5E0,4E0,4E0,3E0,4E0,2E0,2E0,1E0,4E0,4E0,1E1,1.7E1,3E1,6E0,1.7E1,1.7E1,4E0,4E0,3.2E1,8E0,2.5E1,8E0,1E0,3E0,1E0,1E0,1E0,2E0,6E0,5E0,2E0,4E0,3E0,4E0],"tree_param":{"num_deleted":"0","num_feature":"8","num_nodes":"91","size_leaf_vector":"1"}},{"base_weights":[1.054074E0,7.4517994E0,-3.9433494E0,8.4506065E-1,1.4834789E1,-6.368596E0,6.0692787E0,-6.6556964E0,7.41048E0,7.81426E0,2.0663183E1,-7.4616904E0,-4.347865E0,1.708849E1,1.1738715E0,-7.9218135E0,-1.2340598E0,2.1701912E1,-2.6041133E0,-8.674148E0,5.0915096E1,4.811237E1,4.9339075E0,-9.114957E0,-6.503496E0,-2.5924277E0,-6.1386275E0,2.1974009E1,6.8310637E0,-3.0456626E0,4.4712405E0,-6.692294E0,-9.910491E0,-2.563232E0,8.212013E0,5.194889E1,1.1509782E1,-6.668243E0,2.3543808E0,-2.058157E1,3.047838E1,1.2777505E1,2.8617813E1,2.7053926E1,-1.11694145E1,5.8274544E1,-5.4611616E0,-3.3519397E0,-6.893425E0,-2.6035457E0,-5.1247587E0,-3.3249857E0,-1.0914248E0,-2.2087674E0,-2.4644651E0,1.2053233E1,3.1183966E1,4.0640488E-1,7.8614883E0,-1.3318629E0,-2.0632172E-1,1.4137751E0,7.7635193E0,-2.816699E0,-1.0161606E0,-1.561041E0,-3.7906244E0,7.7755213E0,-1.8988755E0,4.5208592E0,2.4388048E1,3.7184715E-1,6.4809012E0,-3.9424756E0,-1.112429E0,2.4902778E0,-9.236991E-1,4.5917284E-1,-1.5353128E1,1.2265867E1,1.9325393E0,5.97207E0,-2.9625702E-1,2.5155104E1,6.5397496E0,-8.27369E0,1.0178293E1,-2.824079E-1,-3.4682825E0,-4.190452E-1,-1.7171777E0,-1.5243503E0,-3.708917E-1,9.919018E-1,-1.5921855E0,-1.8948041E0,3.3289996E-1,7.628373E0,7.0577604E-1,1.6523278E0,1.2380457E1,7.001541E-1,2.677826E0,4.2886204E-1,-5.320229E-1,3.5885804E0,-9.9264973E-1,3.975335E0,-1.1910943E0],"categories":[],"categories_nodes":[],"categories_segments":[],"categories_sizes":[],"default_left":[0,0,0,0,0,0,0,0,0,0,0,0,0,0,0,0,0,0,0,0,0,0,0,0,0,0,0,0,0,0,0,0,0,0,0,0,0,0,0,0,0,0,0,0,0,0,0,0,0,0,0,0,0,0,0,0,0,0,0,0,0,0,0,0,0,0,0,0,0,0,0,0,0,0,0,0,0,0,0,0,0,0,0,0,0,0,0,0,0,0,0,0,0,0,0,0,0,0,0,0,0,0,0,0,0,0,0,0,0],"id":6,"left_children":[1,3,5,7,9,11,13,15,17,19,21,23,25,27,29,31,33,35,37,39,41,43,45,47,49,51,53,55,57,59,61,63,65,-1,67,69,71,73,75,77,79,81,-1,-1,-1,83,85,-1,87,-1,89,91,93,-1,95,97,99,-1,101,-1,103,105,107,-1,-1,-1,-1,-1,-1,-1,-1,-1,-1,-1,-1,-1,-1,-1,-1,-1,-1,-1,-1,-1,-1,-1,-1,-1,-1,-1,-1,-1,-1,-1,-1,-1,-1,-1,-1,-1,-1,-1,-1,-1,-1,-1,-1,-1,-1],"loss_changes":[1.0356388E4,6.913866E3,4.458176E3,3.791989E3,2.5800664E3,2.922588E2,1.9219073E3,2.3734338E2,5.9245527E3,2.3182896E4,1.5305828E4,8.963086E1,1.5383887E2,4.011355E2,3.753653E2,4.5844727E0,6.225742E2,4.642859E3,5.194987E2,1.18162295E4,1.4047537E4,5.0029957E4,1.3625758E4,6.929248E1,1.4444531E2,2.8258606E1,9.8775085E1,2.6372168E2,1.7565155E1,4.657644E1,1.4001453E2,1.5536737E2,4.9688416E1,0E0,1.1939696E3,3.1037861E3,1.424468E3,2.1953821E2,4.132764E2,1.2932449E4,1.2376328E3,6.084766E2,0E0,0E0,0E0,1.9036807E3,1.923076E4,0E0,4.8918146E2,0E0,8.358472E1,6.3412033E1,2.2149161E2,0E0,1.1713619E2,5.8889374E2,5.494785E2,0E0,2.7067719E0,0E0,1.5352856E1,4.8791342E2,5.0334482E2,0E0,0E0,0E0,0E0,0E0,0E0,0E0,0E0,0E0,0E0,0E0,0E0,0E0,0E0,0E0,0E0,0E0,0E0,0E0,0E0,0E0,0E0,0E0,0E0,0E0,0E0,0E0,0E0,0E0,0E0,0E0,0E0,0E0,0E0,0E0,0E0,0E0,0E0,0E0,0E0,0E0,0E0,0E0,0E0,0E0,0E0],"parents":[2147483647,0,0,1,1,2,2,3,3,4,4,5,5,6,6,7,7,8,8,9,9,10,10,11,11,12,12,13,13,14,14,15,15,16,16,17,17,18,18,19,19,20,20,21,21,22,22,23,23,24,24,25,25,26,26,27,27,28,28,29,29,30,30,31,31,32,32,34,34,35,35,36,36,37,37,38,38,39,39,40,40,41,41,45,45,46,46,48,48,50,50,51,51,52,52,54,54,55,55,56,56,58,58,60,60,61,61,62,62],"right_children":[2,4,6,8,10,12,14,16,18,20,22,24,26,28,30,32,34,36,38,40,42,44,46,48,50,52,54,56,58,60,62,64,66,-1,68,70,72,74,76,78,80,82,-1,-1,-1,84,86,-1,88,-1,90,92,94,-1,96,98,100,-1,102,-1,104,106,108,-1,-1,-1,-1,-1,-1,-1,-1,-1,-1,-1,-1,-1,-1,-1,-1,-1,-1,-1,-1,-1,-1,-1,-1,-1,-1,-1,-1,-1,-1,-1,-1,-1,-1,-1,-1,-1,-1,-1,-1,-1,-1,-1,-1,-1,-1],"split_conditions":[8.5615987E-1,-1.4238021E-1,1.236721E0,-2.530122E-1,1.0889466E0,2.5164872E-1,7.938117E-1,1.0889466E0,7.938117E-1,-2.530122E-1,-2.530122E-1,-9.304381E-1,7.938117E-1,9.6964806E-1,1.6307501E0,-5.3640914E-1,-7.334236E-1,1.0889466E0,1.0951275E0,1.236721E0,6.456777E-1,1.4337355E0,7.938117E-1,1.0951275E0,-1.6915676E-1,1.0889466E0,1.0889466E0,1.0889466E0,-1.6915676E-1,1.0889466E0,1.0951275E0,-1.6915676E-1,-1.6915676E-1,-2.563232E0,9.6964806E-1,-1.1274525E0,1.0951275E0,-1.1274525E0,9.6964806E-1,-1.6915676E-1,1.8277645E0,9.6964806E-1,2.8617813E1,2.7053926E1,-1.11694145E1,1.0951275E0,1.4337355E0,-3.3519397E0,7.938117E-1,-2.6035457E0,-7.334236E-1,1.0951275E0,1.0951275E0,-2.2087674E0,6.456777E-1,-1.6915676E-1,1.0951275E0,4.0640488E-1,1.0951275E0,-1.3318629E0,9.6964806E-1,-1.6915676E-1,1.0889466E0,-2.816699E0,-1.0161606E0,-1.561041E0,-3.7906244E0,7.7755213E0,-1.8988755E0,4.5208592E0,2.4388048E1,3.7184715E-1,6.4809012E0,-3.9424756E0,-1.112429E0,2.4902778E0,-9.236991E-1,4.5917284E-1,-1.5353128E1,1.2265867E1,1.9325393E0,5.97207E0,-2.9625702E-1,2.5155104E1,6.5397496E0,-8.27369E0,1.0178293E1,-2.824079E-1,-3.4682825E0,-4.190452E-1,-1.7171777E0,-1.5243503E0,-3.708917E-1,9.919018E-1,-1.5921855E0,-1.8948041E0,3.3289996E-1,7.628373E0,7.0577604E-1,1.6523278E0,1.2380457E1,7.001541E-1,2.677826E0,4.2886204E-1,-5.320229E-1,3.5885804E0,-9.9264973E-1,3.975335E0,-1.1910943E0],"split_indices":[7,3,3,4,1,3,2,1,2,4,4,3,2,0,3,3,3,1,4,3,3,3,2,4,1,1,1,1,1,1,4,1,1,0,0,3,4,3,0,1,3,0,0,0,0,4,3,0,2,0,3,4,4,0,3,1,4,0,4,0,0,1,1,0,0,0,0,0,0,0,0,0,0,0,0,0,0,0,0,0,0,0,0,0,0,0,0,0,0,0,0,0,0,0,0,0,0,0,0,0,0,0,0,0,0,0,0,0,0],"split_type":[0,0,0,0,0,0,0,0,0,0,0,0,0,0,0,0,0,0,0,0,0,0,0,0,0,0,0,0,0,0,0,0,0,0,0,0,0,0,0,0,0,0,0,0,0,0,0,0,0,0,0,0,0,0,0,0,0,0,0,0,0,0,0,0,0,0,0,0,0,0,0,0,0,0,0,0,0,0,0,0,0,0,0,0,0,0,0,0,0,0,0,0,0,0,0,0,0,0,0,0,0,0,0,0,0,0,0,0,0],"sum_hessian":[3.22E2,1.41E2,1.81E2,7.5E1,6.6E1,1.46E2,3.5E1,3.5E1,4E1,3.1E1,3.5E1,9.3E1,5.3E1,1E1,2.5E1,2.8E1,7E0,1.6E1,2.4E1,2.3E1,8E0,1.2E1,2.3E1,3.1E1,6.2E1,2.8E1,2.5E1,6E0,4E0,1.1E1,1.4E1,2E1,8E0,4E0,3E0,3E0,1.3E1,1.3E1,1.1E1,1.8E1,5E0,5E0,3E0,8E0,4E0,3E0,2E1,1.4E1,1.7E1,2.2E1,4E1,1.8E1,1E1,1.8E1,7E0,4E0,2E0,1E0,3E0,7E0,4E0,8E0,6E0,1E1,1E1,4E0,4E0,1E0,2E0,2E0,1E0,7E0,6E0,3E0,1E1,5E0,6E0,1.1E1,7E0,3E0,2E0,3E0,2E0,1E0,2E0,1.3E1,7E0,8E0,9E0,6E0,3.4E1,9E0,9E0,5E0,5E0,3E0,4E0,1E0,3E0,1E0,1E0,1E0,2E0,2E0,2E0,2E0,6E0,4E0,2E0],"tree_param":{"num_deleted":"0","num_feature":"8","num_nodes":"109","size_leaf_vector":"1"}},{"base_weights":[1.1139268E0,5.987275E0,-2.6944766E0,9.3894017E-1,1.1624383E1,-4.5812044E0,5.084509E0,-4.8220735E0,5.97449E0,1.1096678E0,1.3669957E1,-5.911823E0,-3.541085E0,1.4339336E1,9.734474E-1,-5.8619766E0,-4.4966555E-1,1.7294968E1,-1.9624133E0,-5.3737698E0,2.2351236E1,4.1289223E1,1.0751375E1,-6.581518E0,-4.3645945E0,-2.496094E0,-4.601659E0,1.8577084E1,5.538623E0,-1.3539442E0,5.5200696E0,-4.867123E0,-7.5319715E0,-1.9480561E0,7.2175694E0,4.3591446E1,8.546332E0,-5.0288353E0,1.7786134E0,-2.5046625E0,1.1761074E0,8.460123E0,1.597934E0,1.7373837E0,4.871589E1,1.6909521E1,3.9428625E0,-8.038826E0,-4.891292E0,-2.4246104E0,-6.0841594E0,-3.1566916E0,-6.271852E-1,-1.5952727E0,-2.6506398E0,1.0104095E1,2.6506369E1,3.454445E-1,1.9042615E0,-3.304861E0,2.1839054E0,3.3397934E0,3.426917E0,-2.048508E0,-7.390263E-1,-1.1863908E0,-2.880874E0,6.6091924E0,-1.5191003E0,3.616687E0,2.0729837E1,2.7423763E-1,4.814385E0,-2.481325E0,-4.6897933E-1,1.9282148E0,-1.1824158E0,-1.4313705E0,2.8527203E0,2.138184E1,5.2317967E0,5.5191927E0,2.5908144E0,-2.9392674E0,2.3042827E0,-2.9216406E0,-1.785683E0,-6.1288315E-1,-2.2661757E0,-2.8660094E-2,-1.4213295E0,-2.2268054E0,-8.9801747E-1,-1.4211212E0,-6.4535415E-1,-5.4034156E-1,4.8341036E-1,6.749153E-2,-1.5442766E0,2.4471016E-1,7.0886517E0,1.4044785E0,1.0523388E1,-1.6234282E0,-8.8917166E-2,-4.9517673E-2,1.6112634E0,-8.167088E-1,2.2982874E0],"categories":[],"categories_nodes":[],"categories_segments":[],"categories_sizes":[],"default_left":[0,0,0,0,0,0,0,0,0,0,0,0,0,0,0,0,0,0,0,0,0,0,0,0,0,0,0,0,0,0,0,0,0,0,0,0,0,0,0,0,0,0,0,0,0,0,0,0,0,0,0,0,0,0,0,0,0,0,0,0,0,0,0,0,0,0,0,0,0,0,0,0,0,0,0,0,0,0,0,0,0,0,0,0,0,0,0,0,0,0,0,0,0,0,0,0,0,0,0,0,0,0,0,0,0,0,0,0,0],"id":7,"left_children":[1,3,5,7,9,11,13,15,17,19,21,23,25,27,29,31,33,35,37,39,41,43,45,47,49,51,53,55,57,59,61,63,65,-1,67,69,71,73,75,-1,77,-1,-1,-1,79,81,83,85,87,89,91,93,95,-1,97,99,101,-1,-1,103,105,-1,107,-1,-1,-1,-1,-1,-1,-1,-1,-1,-1,-1,-1,-1,-1,-1,-1,-1,-1,-1,-1,-1,-1,-1,-1,-1,-1,-1,-1,-1,-1,-1,-1,-1,-1,-1,-1,-1,-1,-1,-1,-1,-1,-1,-1,-1,-1],"loss_changes":[6.010908E3,4.0301216E3,2.6944763E3,2.2335598E3,1.4259102E3,1.8251416E2,1.3557395E3,1.6105176E2,3.7177705E3,1.7727311E3,4.0701934E3,3.655298E1,8.2718506E1,3.073557E2,2.8259988E2,1.15216675E1,4.175847E2,3.5384443E3,2.957335E2,2.0468494E2,1.4853479E2,1.0360303E3,2.1135742E3,6.41333E1,5.8638702E1,5.3577057E1,4.3172424E1,2.0247021E2,1.0435043E1,1.3145442E2,6.758115E1,8.217767E1,2.8700043E1,0E0,8.3924713E2,2.384628E3,7.8688477E2,1.4437744E2,3.4442426E2,0E0,2.4360587E2,0E0,0E0,0E0,1.5790615E3,1.734668E2,1.4106866E3,1.6520752E1,1.5141772E2,6.419755E1,2.3288818E1,4.2249634E1,3.706573E1,0E0,9.450135E1,6.088417E2,3.969983E2,0E0,0E0,7.4446594E1,5.32891E1,0E0,2.2914629E2,0E0,0E0,0E0,0E0,0E0,0E0,0E0,0E0,0E0,0E0,0E0,0E0,0E0,0E0,0E0,0E0,0E0,0E0,0E0,0E0,0E0,0E0,0E0,0E0,0E0,0E0,0E0,0E0,0E0,0E0,0E0,0E0,0E0,0E0,0E0,0E0,0E0,0E0,0E0,0E0,0E0,0E0,0E0,0E0,0E0,0E0],"parents":[2147483647,0,0,1,1,2,2,3,3,4,4,5,5,6,6,7,7,8,8,9,9,10,10,11,11,12,12,13,13,14,14,15,15,16,16,17,17,18,18,19,19,20,20,21,21,22,22,23,23,24,24,25,25,26,26,27,27,28,28,29,29,30,30,31,31,32,32,34,34,35,35,36,36,37,37,38,38,40,40,44,44,45,45,46,46,47,47,48,48,49,49,50,50,51,51,52,52,54,54,55,55,56,56,59,59,60,60,62,62],"right_children":[2,4,6,8,10,12,14,16,18,20,22,24,26,28,30,32,34,36,38,40,42,44,46,48,50,52,54,56,58,60,62,64,66,-1,68,70,72,74,76,-1,78,-1,-1,-1,80,82,84,86,88,90,92,94,96,-1,98,100,102,-1,-1,104,106,-1,108,-1,-1,-1,-1,-1,-1,-1,-1,-1,-1,-1,-1,-1,-1,-1,-1,-1,-1,-1,-1,-1,-1,-1,-1,-1,-1,-1,-1,-1,-1,-1,-1,-1,-1,-1,-1,-1,-1,-1,-1,-1,-1,-1,-1,-1,-1],"split_conditions":[8.5615987E-1,-1.4238021E-1,1.236721E0,-2.530122E-1,-1.6915676E-1,-3.3939466E-1,7.938117E-1,1.0889466E0,7.938117E-1,8.4269214E-1,7.938117E-1,1.0889466E0,7.938117E-1,9.6964806E-1,1.8277645E0,-5.3640914E-1,-7.334236E-1,1.0889466E0,1.0951275E0,4.486632E-1,9.6964806E-1,1.0889466E0,9.6964806E-1,1.0951275E0,9.6964806E-1,8.4269214E-1,1.0889466E0,1.0889466E0,-1.6915676E-1,1.0889466E0,-1.6915676E-1,-1.6915676E-1,-1.6915676E-1,-1.9480561E0,9.6964806E-1,-1.1274525E0,1.0951275E0,9.6964806E-1,1.0889466E0,-2.5046625E0,7.938117E-1,8.460123E0,1.597934E0,1.7373837E0,1.0951275E0,1.0951275E0,2.5164872E-1,7.938117E-1,7.938117E-1,7.938117E-1,-9.304381E-1,-1.6915676E-1,1.0889466E0,-1.5952727E0,1.0951275E0,1.6307501E0,1.0951275E0,3.454445E-1,1.9042615E0,1.0951275E0,1.6307501E0,3.3397934E0,9.6964806E-1,-2.048508E0,-7.390263E-1,-1.1863908E0,-2.880874E0,6.6091924E0,-1.5191003E0,3.616687E0,2.0729837E1,2.7423763E-1,4.814385E0,-2.481325E0,-4.6897933E-1,1.9282148E0,-1.1824158E0,-1.4313705E0,2.8527203E0,2.138184E1,5.2317967E0,5.5191927E0,2.5908144E0,-2.9392674E0,2.3042827E0,-2.9216406E0,-1.785683E0,-6.1288315E-1,-2.2661757E0,-2.8660094E-2,-1.4213295E0,-2.2268054E0,-8.9801747E-1,-1.4211212E0,-6.4535415E-1,-5.4034156E-1,4.8341036E-1,6.749153E-2,-1.5442766E0,2.4471016E-1,7.0886517E0,1.4044785E0,1.0523388E1,-1.6234282E0,-8.8917166E-2,-4.9517673E-2,1.6112634E0,-8.167088E-1,2.2982874E0],"split_indices":[7,3,3,4,1,3,2,1,2,3,2,1,2,0,3,3,3,1,4,3,0,1,0,4,0,3,1,1,1,1,1,1,1,0,0,3,4,0,1,0,2,0,0,0,4,4,3,2,2,2,3,1,1,0,4,3,4,0,0,4,3,0,0,0,0,0,0,0,0,0,0,0,0,0,0,0,0,0,0,0,0,0,0,0,0,0,0,0,0,0,0,0,0,0,0,0,0,0,0,0,0,0,0,0,0,0,0,0,0],"split_type":[0,0,0,0,0,0,0,0,0,0,0,0,0,0,0,0,0,0,0,0,0,0,0,0,0,0,0,0,0,0,0,0,0,0,0,0,0,0,0,0,0,0,0,0,0,0,0,0,0,0,0,0,0,0,0,0,0,0,0,0,0,0,0,0,0,0,0,0,0,0,0,0,0,0,0,0,0,0,0,0,0,0,0,0,0,0,0,0,0,0,0,0,0,0,0,0,0,0,0,0,0,0,0,0,0,0,0,0,0],"sum_hessian":[3.22E2,1.41E2,1.81E2,7.5E1,6.6E1,1.46E2,3.5E1,3.5E1,4E1,1.1E1,5.5E1,6.2E1,8.4E1,1E1,2.5E1,2.8E1,7E0,1.6E1,2.4E1,9E0,2E0,4E0,5.1E1,4.1E1,2.1E1,4.4E1,4E1,6E0,4E0,1.7E1,8E0,2E1,8E0,4E0,3E0,3E0,1.3E1,1.3E1,1.1E1,6E0,3E0,1E0,1E0,1E0,3E0,2.6E1,2.5E1,2E1,2.1E1,1.1E1,1E1,3.2E1,1.2E1,2.8E1,1.2E1,4E0,2E0,1E0,3E0,1.1E1,6E0,1E0,7E0,1E1,1E1,4E0,4E0,1E0,2E0,2E0,1E0,7E0,6E0,6E0,7E0,6E0,5E0,2E0,1E0,1E0,2E0,2.1E1,5E0,5E0,2E1,9E0,1.1E1,1.1E1,1E1,6E0,5E0,6E0,4E0,1.1E1,2.1E1,8E0,4E0,6E0,6E0,3E0,1E0,1E0,1E0,6E0,5E0,4E0,2E0,3E0,4E0],"tree_param":{"num_deleted":"0","num_feature":"8","num_nodes":"109","size_leaf_vector":"1"}},{"base_weights":[1.0185838E0,4.67221E0,-1.8376445E0,-1.5627148E0,7.218692E0,-3.3249156E0,4.286425E0,-3.5205634E0,6.007237E0,1.1508215E1,3.4218507E0,-4.3313107E0,-2.5398827E0,1.19930725E1,8.610579E-1,-7.884371E-1,-5.39363E0,3.6856008E0,8.206317E-1,7.1154404E-1,1.3704672E1,-2.369554E0,8.695853E0,-4.7876906E0,-3.2631617E0,-1.7944522E0,-3.2960896E0,1.5755561E1,4.3269744E0,-9.561276E-1,4.3997555E0,-1.426125E0,1.0856538E0,-2.1299157E0,-3.3523102E0,1.3984514E0,-4.574076E0,-5.192099E0,7.1911035E0,2.483221E1,1.0928992E1,-6.298887E0,2.1798832E1,1.4862044E1,-4.506114E0,-5.851336E0,-3.5547707E0,-1.8180598E0,-4.5429854E0,-2.2723043E0,-4.4340837E-1,-3.5689328E0,-1.1096827E0,8.539538E0,2.253041E1,2.9362795E-1,4.919338E0,-2.4560966E0,1.7518376E0,1.502973E0,7.644991E0,1.061704E0,-7.698542E-1,-1.4613235E0,-1.6667199E-1,-1.9047318E-1,-1.8678613E0,-2.0620713E0,-5.376706E-1,-1.3968659E-2,1.043791E1,2.0958552E0,4.268676E0,-4.121042E0,3.088215E0,8.400568E0,4.7844774E-1,1.4295787E1,1.881713E0,5.242859E-1,-1.8864001E0,-2.1327972E0,-1.2946204E0,-4.4433987E-1,-1.6481283E0,6.941643E-2,-1.1718217E0,-1.654198E0,-6.824932E-1,-1.0303134E0,-4.605479E-1,-3.962498E-1,3.6739105E-1,-8.1743056E-1,-1.2785164E0,-6.8446124E-1,1.3988686E-2,5.226571E0,-9.5680165E-1,1.1938065E0,8.944879E0,3.0949175E-1,1.7614076E0,1.2256623E-3,-1.2641861E0,1.2357908E0,-3.160761E-1,-9.831253E-1,2.2126176E0,4.3792543E0,-1.9818867E0],"categories":[],"categories_nodes":[],"categories_segments":[],"categories_sizes":[],"default_left":[0,0,0,0,0,0,0,0,0,0,0,0,0,0,0,0,0,0,0,0,0,0,0,0,0,0,0,0,0,0,0,0,0,0,0,0,0,0,0,0,0,0,0,0,0,0,0,0,0,0,0,0,0,0,0,0,0,0,0,0,0,0,0,0,0,0,0,0,0,0,0,0,0,0,0,0,0,0,0,0,0,0,0,0,0,0,0,0,0,0,0,0,0,0,0,0,0,0,0,0,0,0,0,0,0,0,0,0,0,0,0],"id":8,"left_children":[1,3,5,7,9,11,13,15,17,19,21,23,25,27,29,31,33,-1,35,37,39,41,43,45,47,49,51,53,55,57,59,-1,61,-1,63,-1,65,67,-1,69,71,73,75,77,79,81,83,85,87,89,91,93,95,97,99,-1,101,103,105,107,109,-1,-1,-1,-1,-1,-1,-1,-1,-1,-1,-1,-1,-1,-1,-1,-1,-1,-1,-1,-1,-1,-1,-1,-1,-1,-1,-1,-1,-1,-1,-1,-1,-1,-1,-1,-1,-1,-1,-1,-1,-1,-1,-1,-1,-1,-1,-1,-1,-1,-1],"loss_changes":[3.3792817E3,2.2658325E3,1.6719355E3,6.436233E2,1.6055713E3,1.0513684E2,9.400049E2,1.697409E2,2.829764E2,1.1048257E3,1.7005189E3,1.5088257E1,4.1999817E1,2.4910571E2,1.7139894E2,1.1663128E2,4.5853027E1,0E0,1.4564441E2,1.3602612E3,9.331831E2,2.7013806E3,2.42774E3,3.427826E1,3.2429047E1,2.8044403E1,2.0498016E1,1.4981287E2,5.1019516E0,7.741624E1,7.3116455E1,0E0,1.0763364E2,0E0,4.401728E1,0E0,1.5570923E1,3.3415115E1,0E0,1.736311E3,3.299563E2,3.103413E3,4.5664844E2,5.3343086E3,1.2242345E2,9.896362E0,8.031976E1,5.2255093E1,1.1680588E1,2.2996017E1,2.0644123E1,9.441589E0,8.236562E0,5.7646515E2,2.8683118E2,0E0,8.747543E0,5.1912987E1,5.083226E1,1.9259277E2,4.9276486E2,0E0,0E0,0E0,0E0,0E0,0E0,0E0,0E0,0E0,0E0,0E0,0E0,0E0,0E0,0E0,0E0,0E0,0E0,0E0,0E0,0E0,0E0,0E0,0E0,0E0,0E0,0E0,0E0,0E0,0E0,0E0,0E0,0E0,0E0,0E0,0E0,0E0,0E0,0E0,0E0,0E0,0E0,0E0,0E0,0E0,0E0,0E0,0E0,0E0,0E0],"parents":[2147483647,0,0,1,1,2,2,3,3,4,4,5,5,6,6,7,7,8,8,9,9,10,10,11,11,12,12,13,13,14,14,15,15,16,16,18,18,19,19,20,20,21,21,22,22,23,23,24,24,25,25,26,26,27,27,28,28,29,29,30,30,32,32,34,34,36,36,37,37,39,39,40,40,41,41,42,42,43,43,44,44,45,45,46,46,47,47,48,48,49,49,50,50,51,51,52,52,53,53,54,54,56,56,57,57,58,58,59,59,60,60],"right_children":[2,4,6,8,10,12,14,16,18,20,22,24,26,28,30,32,34,-1,36,38,40,42,44,46,48,50,52,54,56,58,60,-1,62,-1,64,-1,66,68,-1,70,72,74,76,78,80,82,84,86,88,90,92,94,96,98,100,-1,102,104,106,108,110,-1,-1,-1,-1,-1,-1,-1,-1,-1,-1,-1,-1,-1,-1,-1,-1,-1,-1,-1,-1,-1,-1,-1,-1,-1,-1,-1,-1,-1,-1,-1,-1,-1,-1,-1,-1,-1,-1,-1,-1,-1,-1,-1,-1,-1,-1,-1,-1,-1,-1],"split_conditions":[8.5615987E-1,-7.334236E-1,1.236721E0,1.0951275E0,9.6964806E-1,-3.3939466E-1,7.938117E-1,7.938117E-1,7.938117E-1,-1.6915676E-1,1.0889466E0,1.0889466E0,7.938117E-1,9.6964806E-1,1.8277645E0,-1.6915676E-1,-1.1274525E0,3.6856008E0,9.6964806E-1,8.4269214E-1,7.938117E-1,1.0397066E0,1.0951275E0,1.0951275E0,9.6964806E-1,8.4269214E-1,1.0397066E0,1.0889466E0,-1.6915676E-1,1.0889466E0,1.0951275E0,-1.426125E0,1.0889466E0,-2.1299157E0,1.0889466E0,1.3984514E0,1.0889466E0,7.938117E-1,7.1911035E0,-2.530122E-1,4.486632E-1,-2.530122E-1,1.8277645E0,7.938117E-1,-5.3640914E-1,7.938117E-1,7.938117E-1,1.0951275E0,-9.304381E-1,-1.6915676E-1,1.0889466E0,1.0951275E0,-1.6915676E-1,1.0951275E0,1.0951275E0,2.9362795E-1,1.0951275E0,-1.6915676E-1,1.0951275E0,1.0889466E0,1.0889466E0,1.061704E0,-7.698542E-1,-1.4613235E0,-1.6667199E-1,-1.9047318E-1,-1.8678613E0,-2.0620713E0,-5.376706E-1,-1.3968659E-2,1.043791E1,2.0958552E0,4.268676E0,-4.121042E0,3.088215E0,8.400568E0,4.7844774E-1,1.4295787E1,1.881713E0,5.242859E-1,-1.8864001E0,-2.1327972E0,-1.2946204E0,-4.4433987E-1,-1.6481283E0,6.941643E-2,-1.1718217E0,-1.654198E0,-6.824932E-1,-1.0303134E0,-4.605479E-1,-3.962498E-1,3.6739105E-1,-8.1743056E-1,-1.2785164E0,-6.8446124E-1,1.3988686E-2,5.226571E0,-9.5680165E-1,1.1938065E0,8.944879E0,3.0949175E-1,1.7614076E0,1.2256623E-3,-1.2641861E0,1.2357908E0,-3.160761E-1,-9.831253E-1,2.2126176E0,4.3792543E0,-1.9818867E0],"split_indices":[7,3,3,4,0,3,2,2,2,1,1,1,2,0,3,1,3,0,0,3,2,3,4,4,0,3,3,1,1,1,4,0,1,0,1,0,1,2,0,4,3,4,3,2,3,2,2,4,3,1,1,4,1,4,4,0,4,1,4,1,1,0,0,0,0,0,0,0,0,0,0,0,0,0,0,0,0,0,0,0,0,0,0,0,0,0,0,0,0,0,0,0,0,0,0,0,0,0,0,0,0,0,0,0,0,0,0,0,0,0,0],"split_type":[0,0,0,0,0,0,0,0,0,0,0,0,0,0,0,0,0,0,0,0,0,0,0,0,0,0,0,0,0,0,0,0,0,0,0,0,0,0,0,0,0,0,0,0,0,0,0,0,0,0,0,0,0,0,0,0,0,0,0,0,0,0,0,0,0,0,0,0,0,0,0,0,0,0,0,0,0,0,0,0,0,0,0,0,0,0,0,0,0,0,0,0,0,0,0,0,0,0,0,0,0,0,0,0,0,0,0,0,0,0,0],"sum_hessian":[3.22E2,1.41E2,1.81E2,4.1E1,1E2,1.46E2,3.5E1,3.3E1,8E0,4.6E1,5.4E1,6.2E1,8.4E1,1E1,2.5E1,1.4E1,1.9E1,3E0,5E0,8E0,3.8E1,2.6E1,2.8E1,4.1E1,2.1E1,4.4E1,4E1,6E0,4E0,1.7E1,8E0,4E0,1E1,9E0,1E1,3E0,2E0,7E0,1E0,6E0,3.2E1,2.3E1,3E0,1.9E1,9E0,2E1,2.1E1,1.1E1,1E1,3.2E1,1.2E1,3.5E1,5E0,4E0,2E0,1E0,3E0,1.1E1,6E0,5E0,3E0,6E0,4E0,6E0,4E0,1E0,1E0,4E0,3E0,2E0,4E0,1.6E1,1.6E1,1.6E1,7E0,2E0,1E0,3E0,1.6E1,2E0,7E0,9E0,1.1E1,1.1E1,1E1,6E0,5E0,6E0,4E0,1.1E1,2.1E1,8E0,4E0,1.8E1,1.7E1,2E0,3E0,2E0,2E0,1E0,1E0,1E0,2E0,5E0,6E0,3E0,3E0,3E0,2E0,2E0,1E0],"tree_param":{"num_deleted":"0","num_feature":"8","num_nodes":"111","size_leaf_vector":"1"}},{"base_weights":[8.646689E-1,3.5675535E0,-1.248926E0,4.8999172E-1,7.005272E0,-2.4175441E0,3.5576236E0,4.3999186E0,-2.1556108E0,1.4776004E1,5.215021E0,-3.1741235E0,-1.8283435E0,9.919966E0,7.290318E-1,-2.0135868E0,9.800075E0,-2.9628916E0,3.7859216E-1,4.126801E0,3.504271E1,5.957712E-1,7.3874087E0,-3.9570642E0,-2.6884375E0,-1.2898889E0,-2.3747365E0,6.79938E0,6.168874E0,-2.9681537E-1,5.096953E0,-1.2898763E0,-1.1853959E-2,3.346032E1,2.3399997E0,-4.489875E0,-3.517118E-1,4.257879E0,-3.000595E0,-2.3977687E0,5.392559E0,1.6030197E1,1.1100952E1,1.3512976E1,-1.238101E1,1.4000393E0,1.2706039E1,9.460843E-1,-1.348405E0,-3.522413E0,-1.6867279E0,-1.6357908E0,-3.126077E-1,-2.8351152E0,-1.1650664E0,3.2447433E-1,1.3209391E1,2.8467124E0,-1.6535578E0,4.7912598E-2,8.447009E0,-6.3126737E-1,6.248662E-1,2.6810088E0,1.605468E1,-1.1458752E0,2.7135713E0,-5.785489E-1,-1.6669855E0,3.3231166E-1,-1.8216431E0,1.7750599E0,1.8798067E-1,-8.428517E-2,-1.4910274E0,-1.3321764E0,1.478872E0,7.9933915E0,-2.997963E0,-4.638504E0,1.8252113E1,1.0818664E0,-7.0920606E0,8.744616E0,-2.382857E0,1.719607E1,-6.0900694E-1,8.506909E-1,-4.249529E-1,-7.205472E-1,-1.2768255E0,1.9029221E-1,-7.972288E-1,-7.469776E-1,-3.2866356E-1,-2.905837E-1,2.7921662E-1,-8.9013857E-1,-3.804746E-1,-8.1280404E-1,5.5429554E-1,4.1812563E0,-2.9899287E0,8.518693E-1,5.752826E0,9.185792E-4,2.9862924E0,-1.4002528E0,5.8314973E-1,-1.7265393E0,1.7480999E0,5.485758E0,-1.6846036E0],"categories":[],"categories_nodes":[],"categories_segments":[],"categories_sizes":[],"default_left":[0,0,0,0,0,0,0,0,0,0,0,0,0,0,0,0,0,0,0,0,0,0,0,0,0,0,0,0,0,0,0,0,0,0,0,0,0,0,0,0,0,0,0,0,0,0,0,0,0,0,0,0,0,0,0,0,0,0,0,0,0,0,0,0,0,0,0,0,0,0,0,0,0,0,0,0,0,0,0,0,0,0,0,0,0,0,0,0,0,0,0,0,0,0,0,0,0,0,0,0,0,0,0,0,0,0,0,0,0,0,0,0,0],"id":9,"left_children":[1,3,5,7,9,11,13,15,17,19,21,23,25,27,29,31,33,35,37,39,41,43,45,47,49,51,53,55,-1,57,59,-1,61,63,65,67,69,71,73,75,-1,-1,77,79,81,83,85,87,-1,89,91,93,95,97,99,101,103,105,107,109,111,-1,-1,-1,-1,-1,-1,-1,-1,-1,-1,-1,-1,-1,-1,-1,-1,-1,-1,-1,-1,-1,-1,-1,-1,-1,-1,-1,-1,-1,-1,-1,-1,-1,-1,-1,-1,-1,-1,-1,-1,-1,-1,-1,-1,-1,-1,-1,-1,-1,-1,-1,-1],"loss_changes":[1.8496912E3,1.4988978E3,1.0308984E3,7.95637E2,8.5501733E2,5.972589E1,6.406409E2,1.0933853E3,9.522911E1,2.4452766E3,5.575477E2,1.3318298E1,2.1944519E1,2.2551941E2,1.1801415E2,6.858848E1,2.9223252E3,1.3797382E2,1.700822E2,8.5629376E2,1.1681104E3,3.3521555E3,1.1923062E3,6.2244904E1,2.9145477E1,1.47006E1,1.953006E1,4.1075604E2,0E0,9.853627E1,8.4168106E1,0E0,4.382963E1,1.4890596E3,6.1276965E2,4.9395416E1,1.236051E2,3.2437935E1,3.609795E1,1.26669235E2,0E0,0E0,1.2499087E3,1.46536455E4,1.8852844E3,5.1573315E3,1.3265109E4,1.7409437E1,0E0,7.864807E0,4.89993E1,1.2499771E1,1.1504699E1,2.2355347E0,6.548818E1,9.7945056E2,2.5491626E2,1.4145013E2,1.825506E2,1.3414403E2,5.177536E2,0E0,0E0,0E0,0E0,0E0,0E0,0E0,0E0,0E0,0E0,0E0,0E0,0E0,0E0,0E0,0E0,0E0,0E0,0E0,0E0,0E0,0E0,0E0,0E0,0E0,0E0,0E0,0E0,0E0,0E0,0E0,0E0,0E0,0E0,0E0,0E0,0E0,0E0,0E0,0E0,0E0,0E0,0E0,0E0,0E0,0E0,0E0,0E0,0E0,0E0,0E0,0E0],"parents":[2147483647,0,0,1,1,2,2,3,3,4,4,5,5,6,6,7,7,8,8,9,9,10,10,11,11,12,12,13,13,14,14,15,15,16,16,17,17,18,18,19,19,20,20,21,21,22,22,23,23,24,24,25,25,26,26,27,27,29,29,30,30,32,32,33,33,34,34,35,35,36,36,37,37,38,38,39,39,42,42,43,43,44,44,45,45,46,46,47,47,49,49,50,50,51,51,52,52,53,53,54,54,55,55,56,56,57,57,58,58,59,59,60,60],"right_children":[2,4,6,8,10,12,14,16,18,20,22,24,26,28,30,32,34,36,38,40,42,44,46,48,50,52,54,56,-1,58,60,-1,62,64,66,68,70,72,74,76,-1,-1,78,80,82,84,86,88,-1,90,92,94,96,98,100,102,104,106,108,110,112,-1,-1,-1,-1,-1,-1,-1,-1,-1,-1,-1,-1,-1,-1,-1,-1,-1,-1,-1,-1,-1,-1,-1,-1,-1,-1,-1,-1,-1,-1,-1,-1,-1,-1,-1,-1,-1,-1,-1,-1,-1,-1,-1,-1,-1,-1,-1,-1,-1,-1,-1,-1],"split_conditions":[8.5615987E-1,-1.4238021E-1,1.236721E0,7.938117E-1,7.938117E-1,-3.3939466E-1,7.938117E-1,-2.530122E-1,1.0951275E0,1.0889466E0,4.486632E-1,-1.6915676E-1,7.938117E-1,1.6307501E0,2.0247788E0,9.6964806E-1,1.0889466E0,1.0889466E0,9.6964806E-1,8.4269214E-1,1.0951275E0,-2.530122E-1,-2.530122E-1,-1.3244671E0,-9.304381E-1,8.4269214E-1,1.0889466E0,1.0889466E0,6.168874E0,-1.6915676E-1,1.0951275E0,-1.2898763E0,-9.304381E-1,-1.1274525E0,1.0951275E0,-1.6915676E-1,-3.3939466E-1,1.0889466E0,1.0889466E0,-1.6915676E-1,5.392559E0,1.6030197E1,9.6964806E-1,1.0889466E0,1.0889466E0,8.4269214E-1,1.0889466E0,7.938117E-1,-1.348405E0,7.938117E-1,-7.334236E-1,-1.6915676E-1,1.0889466E0,1.0397066E0,6.456777E-1,1.0951275E0,1.0951275E0,1.8277645E0,1.0889466E0,1.0889466E0,1.0889466E0,-6.3126737E-1,6.248662E-1,2.6810088E0,1.605468E1,-1.1458752E0,2.7135713E0,-5.785489E-1,-1.6669855E0,3.3231166E-1,-1.8216431E0,1.7750599E0,1.8798067E-1,-8.428517E-2,-1.4910274E0,-1.3321764E0,1.478872E0,7.9933915E0,-2.997963E0,-4.638504E0,1.8252113E1,1.0818664E0,-7.0920606E0,8.744616E0,-2.382857E0,1.719607E1,-6.0900694E-1,8.506909E-1,-4.249529E-1,-7.205472E-1,-1.2768255E0,1.9029221E-1,-7.972288E-1,-7.469776E-1,-3.2866356E-1,-2.905837E-1,2.7921662E-1,-8.9013857E-1,-3.804746E-1,-8.1280404E-1,5.5429554E-1,4.1812563E0,-2.9899287E0,8.518693E-1,5.752826E0,9.185792E-4,2.9862924E0,-1.4002528E0,5.8314973E-1,-1.7265393E0,1.7480999E0,5.485758E0,-1.6846036E0],"split_indices":[7,3,3,2,2,3,2,4,4,1,3,1,2,3,3,0,1,1,0,3,4,4,4,3,3,3,1,1,0,1,4,0,3,3,4,1,3,1,1,1,0,0,0,1,1,3,1,2,0,2,3,1,1,3,3,4,4,3,1,1,1,0,0,0,0,0,0,0,0,0,0,0,0,0,0,0,0,0,0,0,0,0,0,0,0,0,0,0,0,0,0,0,0,0,0,0,0,0,0,0,0,0,0,0,0,0,0,0,0,0,0,0,0],"split_type":[0,0,0,0,0,0,0,0,0,0,0,0,0,0,0,0,0,0,0,0,0,0,0,0,0,0,0,0,0,0,0,0,0,0,0,0,0,0,0,0,0,0,0,0,0,0,0,0,0,0,0,0,0,0,0,0,0,0,0,0,0,0,0,0,0,0,0,0,0,0,0,0,0,0,0,0,0,0,0,0,0,0,0,0,0,0,0,0,0,0,0,0,0,0,0,0,0,0,0,0,0,0,0,0,0,0,0,0,0,0,0,0,0],"sum_hessian":[3.22E2,1.41E2,1.81E2,7.5E1,6.6E1,1.46E2,3.5E1,3E1,4.5E1,1.1E1,5.5E1,6.2E1,8.4E1,1E1,2.5E1,1.4E1,1.6E1,3.4E1,1.1E1,8E0,3E0,1.8E1,3.7E1,2.1E1,4.1E1,4.4E1,4E1,9E0,1E0,2.1E1,4E0,6E0,8E0,3E0,1.3E1,2.1E1,1.3E1,5E0,6E0,6E0,2E0,1E0,2E0,9E0,9E0,1.8E1,1.9E1,2E0,1.9E1,2.1E1,2E1,3.2E1,1.2E1,2.8E1,1.2E1,5E0,4E0,6E0,1.5E1,2E0,2E0,4E0,4E0,2E0,1E0,7E0,6E0,7E0,1.4E1,1.1E1,2E0,3E0,2E0,3E0,3E0,5E0,1E0,1E0,1E0,6E0,3E0,4E0,5E0,4E0,1.4E1,4E0,1.5E1,1E0,1E0,1E1,1.1E1,6E0,1.4E1,1.1E1,2.1E1,8E0,4E0,2.5E1,3E0,8E0,4E0,2E0,3E0,2E0,2E0,5E0,1E0,8E0,7E0,1E0,1E0,1E0,1E0],"tree_param":{"num_deleted":"0","num_feature":"8","num_nodes":"113","size_leaf_vector":"1"}},{"base_weights":[8.733535E-1,-1.8696491E-1,4.6393704E0,1.6912284E0,-1.815199E0,1.0650327E1,2.0733025E0,-1.1720548E0,5.475778E0,-2.2778704E0,-1.3967733E0,-1.1749257E0,3.0013227E1,7.8570104E-1,6.6840625E0,-6.212242E0,8.327132E0,2.9060696E1,-3.3575017E0,-2.811885E0,-1.9439135E0,-9.993703E-1,-1.7884941E0,7.7436647E0,-1.877712E1,1.8119574E1,1.7044096E1,-1.1794229E0,3.362216E0,8.9186984E-1,1.1362245E1,-1.9526114E0,-1.6547287E1,4.6130652E0,9.836374E0,-1.0180235E-1,1.7471321E1,8.449699E0,-1.2328634E1,8.0417126E-1,-9.6410984E-1,-2.5564792E0,-1.2096106E0,-1.7961532E-1,-2.2990038E0,-2.111228E0,-8.6307836E-1,9.6138763E-1,1.4333664E1,7.655426E-1,-1.0154104E1,-1.46796465E1,3.266952E1,2.931839E0,-4.883709E0,9.075135E0,-2.5050482E-1,2.5383477E0,-2.3142197E0,4.9429107E0,7.5599927E-1,-3.4807026E-1,-9.247214E-1,6.178224E-1,-1.4018964E1,8.431843E0,-1.726915E-1,7.453915E-1,-2.731033E0,5.249925E-1,8.935893E0,-6.667544E0,5.3090817E-1,7.2308695E-1,-3.6120987E-1,-1.0252993E0,-4.6620595E-1,1.4135988E-1,-5.740044E-1,-6.474368E-1,6.4308333E-1,1.6242701E-1,-1.4556167E0,-4.7558525E-1,-7.778166E-1,5.7947177E-1,-1.0541649E0,5.303554E0,-1.7753221E0,7.197025E0,-3.0192567E-2,-5.2128663E0,-1.3929749E0,3.414708E0,1.2920054E1,2.392981E0,-1.7628565E-1,-2.500176E0,1.591568E-1,7.606856E-1,5.084786E0,4.0899447E-1,-3.6834872E-1,-2.694079E0,1.5369691E0,1.7721131E0,-1.4319134E0],"categories":[],"categories_nodes":[],"categories_segments":[],"categories_sizes":[],"default_left":[0,0,0,0,0,0,0,0,0,0,0,0,0,0,0,0,0,0,0,0,0,0,0,0,0,0,0,0,0,0,0,0,0,0,0,0,0,0,0,0,0,0,0,0,0,0,0,0,0,0,0,0,0,0,0,0,0,0,0,0,0,0,0,0,0,0,0,0,0,0,0,0,0,0,0,0,0,0,0,0,0,0,0,0,0,0,0,0,0,0,0,0,0,0,0,0,0,0,0,0,0,0,0,0,0,0,0],"id":10,"left_children":[1,3,5,7,9,11,13,15,17,19,21,23,25,27,29,31,33,35,37,39,41,43,45,47,49,-1,51,53,55,57,59,61,63,65,-1,67,-1,69,71,73,-1,75,77,79,81,83,85,87,89,-1,-1,91,93,95,97,99,101,-1,103,-1,105,-1,-1,-1,-1,-1,-1,-1,-1,-1,-1,-1,-1,-1,-1,-1,-1,-1,-1,-1,-1,-1,-1,-1,-1,-1,-1,-1,-1,-1,-1,-1,-1,-1,-1,-1,-1,-1,-1,-1,-1,-1,-1,-1,-1,-1,-1],"loss_changes":[1.2906636E3,7.76779E2,1.0730596E3,1.2850939E3,2.3147064E1,4.843658E3,2.9752628E2,3.3074126E3,1.0722512E4,5.769226E0,9.732269E0,2.3432185E3,2.1231338E3,2.115555E2,2.8793265E2,1.948746E3,2.0291227E3,1.1918184E4,4.1292837E3,3.4549988E1,1.5799637E1,4.1136925E1,8.92971E0,4.3317188E2,1.6934941E3,0E0,3.949456E3,3.7982123E2,3.7377863E2,1.6518788E2,3.129937E2,2.5966019E1,7.397014E3,2.6979482E3,0E0,2.0887643E2,0E0,2.3780146E3,3.1088655E3,1.257831E1,0E0,1.3681549E1,2.5741398E1,1.1953916E2,1.11403366E2,2.4740067E0,8.827612E1,7.9461224E2,6.993329E2,0E0,0E0,5.095215E-1,6.164453E2,2.1774524E2,2.472644E2,3.1747504E2,2.0600616E1,0E0,2.9389975E2,0E0,1.1363563E2,0E0,0E0,0E0,0E0,0E0,0E0,0E0,0E0,0E0,0E0,0E0,0E0,0E0,0E0,0E0,0E0,0E0,0E0,0E0,0E0,0E0,0E0,0E0,0E0,0E0,0E0,0E0,0E0,0E0,0E0,0E0,0E0,0E0,0E0,0E0,0E0,0E0,0E0,0E0,0E0,0E0,0E0,0E0,0E0,0E0,0E0],"parents":[2147483647,0,0,1,1,2,2,3,3,4,4,5,5,6,6,7,7,8,8,9,9,10,10,11,11,12,12,13,13,14,14,15,15,16,16,17,17,18,18,19,19,20,20,21,21,22,22,23,23,24,24,26,26,27,27,28,28,29,29,30,30,31,31,32,32,33,33,35,35,37,37,38,38,39,39,41,41,42,42,43,43,44,44,45,45,46,46,47,47,48,48,51,51,52,52,53,53,54,54,55,55,56,56,58,58,60,60],"right_children":[2,4,6,8,10,12,14,16,18,20,22,24,26,28,30,32,34,36,38,40,42,44,46,48,50,-1,52,54,56,58,60,62,64,66,-1,68,-1,70,72,74,-1,76,78,80,82,84,86,88,90,-1,-1,92,94,96,98,100,102,-1,104,-1,106,-1,-1,-1,-1,-1,-1,-1,-1,-1,-1,-1,-1,-1,-1,-1,-1,-1,-1,-1,-1,-1,-1,-1,-1,-1,-1,-1,-1,-1,-1,-1,-1,-1,-1,-1,-1,-1,-1,-1,-1,-1,-1,-1,-1,-1,-1],"split_conditions":[1.0397066E0,8.5615987E-1,6.546669E-1,1.0889466E0,-3.3939466E-1,-2.530122E-1,1.8277645E0,-2.530122E-1,-2.530122E-1,-1.6915676E-1,7.938117E-1,1.8277645E0,1.0889466E0,1.0889466E0,1.0951275E0,5.4634266E-2,6.456777E-1,-1.4238021E-1,7.938117E-1,-1.3244671E0,-9.304381E-1,1.0889466E0,1.0889466E0,9.6964806E-1,1.0889466E0,1.8119574E1,1.4337355E0,-1.6915676E-1,7.938117E-1,-1.6915676E-1,1.0889466E0,-5.3640914E-1,-1.6915676E-1,7.938117E-1,9.836374E0,-3.3939466E-1,1.7471321E1,-1.4238021E-1,1.0951275E0,7.938117E-1,-9.6410984E-1,1.0951275E0,-7.334236E-1,1.0951275E0,1.0951275E0,4.486632E-1,1.0951275E0,-1.6915676E-1,1.0889466E0,7.655426E-1,-1.0154104E1,9.6964806E-1,1.8277645E0,7.938117E-1,9.6964806E-1,1.4337355E0,1.0951275E0,2.5383477E0,1.0889466E0,4.9429107E0,9.6964806E-1,-3.4807026E-1,-9.247214E-1,6.178224E-1,-1.4018964E1,8.431843E0,-1.726915E-1,7.453915E-1,-2.731033E0,5.249925E-1,8.935893E0,-6.667544E0,5.3090817E-1,7.2308695E-1,-3.6120987E-1,-1.0252993E0,-4.6620595E-1,1.4135988E-1,-5.740044E-1,-6.474368E-1,6.4308333E-1,1.6242701E-1,-1.4556167E0,-4.7558525E-1,-7.778166E-1,5.7947177E-1,-1.0541649E0,5.303554E0,-1.7753221E0,7.197025E0,-3.0192567E-2,-5.2128663E0,-1.3929749E0,3.414708E0,1.2920054E1,2.392981E0,-1.7628565E-1,-2.500176E0,1.591568E-1,7.606856E-1,5.084786E0,4.0899447E-1,-3.6834872E-1,-2.694079E0,1.5369691E0,1.7721131E0,-1.4319134E0],"split_indices":[3,7,6,1,3,4,3,4,4,1,2,3,1,1,4,3,3,3,2,3,3,1,1,0,1,0,3,1,2,1,1,3,1,2,0,3,0,3,4,2,0,4,3,4,4,3,4,1,1,0,0,0,3,2,0,3,4,0,1,0,0,0,0,0,0,0,0,0,0,0,0,0,0,0,0,0,0,0,0,0,0,0,0,0,0,0,0,0,0,0,0,0,0,0,0,0,0,0,0,0,0,0,0,0,0,0,0],"split_type":[0,0,0,0,0,0,0,0,0,0,0,0,0,0,0,0,0,0,0,0,0,0,0,0,0,0,0,0,0,0,0,0,0,0,0,0,0,0,0,0,0,0,0,0,0,0,0,0,0,0,0,0,0,0,0,0,0,0,0,0,0,0,0,0,0,0,0,0,0,0,0,0,0,0,0,0,0,0,0,0,0,0,0,0,0,0,0,0,0,0,0,0,0,0,0,0,0,0,0,0,0,0,0,0,0,0,0],"sum_hessian":[3.22E2,2.52E2,7E1,1.17E2,1.35E2,2E1,5E1,6.7E1,5E1,6.2E1,7.3E1,1.3E1,7E0,4E1,1E1,4.4E1,2.3E1,1.3E1,3.7E1,2.1E1,4.1E1,3.8E1,3.5E1,9E0,4E0,1E0,6E0,2.3E1,1.7E1,5E0,5E0,3.2E1,1.2E1,2.1E1,2E0,7E0,6E0,1.6E1,2.1E1,2E0,1.9E1,2.1E1,2E1,2.4E1,1.4E1,2.5E1,1E1,5E0,4E0,2E0,2E0,2E0,4E0,1.1E1,1.2E1,6E0,1.1E1,1E0,4E0,3E0,2E0,2E1,1.2E1,8E0,4E0,3E0,1.8E1,6E0,1E0,1.3E1,3E0,1.2E1,9E0,1E0,1E0,1E1,1.1E1,6E0,1.4E1,1.3E1,1.1E1,7E0,7E0,1.4E1,1.1E1,5E0,5E0,1E0,4E0,2E0,2E0,1E0,1E0,2E0,2E0,4E0,7E0,7E0,5E0,4E0,2E0,4E0,7E0,2E0,2E0,1E0,1E0],"tree_param":{"num_deleted":"0","num_feature":"8","num_nodes":"107","size_leaf_vector":"1"}},{"base_weights":[7.9172134E-1,-6.4947866E-2,3.8332086E0,1.3722636E0,-1.3114625E0,8.843562E0,1.6949608E0,-7.701199E-1,4.2018676E0,-1.7719864E0,-1.0401316E0,-7.29126E-1,2.449032E1,6.905217E-1,5.2846923E0,-4.6746564E0,6.5829744E0,2.144861E1,-2.2627707E0,-3.0161858E0,-5.553412E-1,-5.0512826E-1,-1.5882716E0,6.490074E0,-1.5021701E1,1.5401638E1,1.3320711E1,-8.307764E-1,2.6805568E0,4.5021057E0,2.8117576E0,-3.130695E0,-2.5246552E1,-2.2145622E0,1.4197394E1,-3.1946707E-1,1.2978698E1,2.442369E0,-2.0212341E1,-1.3562098E0,-1.3953898E0,7.9168993E-1,-1.7664887E0,-2.6355288E0,5.0928223E-1,-3.4121353E-2,-3.3738384E0,1.2610143E0,1.1466931E1,6.124329E-1,-8.123284E0,-1.2477702E1,2.6135616E1,2.2370117E0,-3.5986748E0,7.1876626E0,-1.7196782E-1,2.1575959E0,1.525956E0,-4.2161924E-1,-2.4065938E0,1.074844E0,-1.2435793E1,-1.2690772E0,4.360387E-1,1.2381698E1,2.550537E0,-1.4635811E0,1.637796E0,1.9413939E0,-6.8597746E-1,-1.0740978E1,1.2988181E0,-5.1318085E-1,3.5807478E-1,-2.4972425E-1,8.4756416E-1,-3.502288E-1,-7.8339297E-1,-1.3157227E0,-1.667623E-1,-9.1932535E-2,3.7411943E-1,1.1140699E0,-5.387196E-1,-1.503466E0,1.1507035E-1,4.5080204E0,-1.3492429E0,5.757621E0,-2.4154663E-2,-4.4309373E0,-1.1840286E0,2.7317674E0,1.0336042E1,-2.714637E-1,1.6589146E0,1.7346056E-1,-2.1784365E0,5.781212E-1,4.0678287E0,-4.904297E-1,1.4918163E-1,-5.5541337E-1,1.3794297E0],"categories":[],"categories_nodes":[],"categories_segments":[],"categories_sizes":[],"default_left":[0,0,0,0,0,0,0,0,0,0,0,0,0,0,0,0,0,0,0,0,0,0,0,0,0,0,0,0,0,0,0,0,0,0,0,0,0,0,0,0,0,0,0,0,0,0,0,0,0,0,0,0,0,0,0,0,0,0,0,0,0,0,0,0,0,0,0,0,0,0,0,0,0,0,0,0,0,0,0,0,0,0,0,0,0,0,0,0,0,0,0,0,0,0,0,0,0,0,0,0,0,0,0,0,0],"id":11,"left_children":[1,3,5,7,9,11,13,15,17,19,21,23,25,27,29,31,33,35,37,39,41,43,45,47,49,-1,51,53,55,-1,57,59,61,63,65,67,-1,69,71,-1,73,75,77,79,81,83,85,87,89,-1,-1,91,93,95,97,99,101,-1,103,-1,-1,-1,-1,-1,-1,-1,-1,-1,-1,-1,-1,-1,-1,-1,-1,-1,-1,-1,-1,-1,-1,-1,-1,-1,-1,-1,-1,-1,-1,-1,-1,-1,-1,-1,-1,-1,-1,-1,-1,-1,-1,-1,-1,-1,-1],"loss_changes":[8.4184106E2,4.5505048E2,7.4566016E2,7.185634E2,1.5150711E1,3.1632686E3,1.802398E2,1.9830822E3,5.7347246E3,7.249869E1,2.500431E1,1.5420255E3,1.7152261E3,1.26351845E2,2.2227332E2,1.3502603E3,1.6391562E3,6.6616167E3,3.2586648E3,5.2216095E1,4.3816296E1,1.0075285E2,1.1921156E2,2.4578284E2,1.0838359E3,0E0,2.6403418E3,2.1184207E2,2.3265541E2,0E0,4.5346397E1,3.5159955E2,1.5501509E3,9.487195E1,1.6538167E3,2.374041E2,0E0,6.054314E2,3.2160317E3,0E0,1.2650751E1,4.5286255E1,4.036854E0,5.2159653E1,1.9640614E1,1.6511577E2,1.24993484E2,5.432009E2,4.4757324E2,0E0,0E0,3.6816406E-1,3.945244E2,1.291475E2,2.0308534E2,2.0850482E2,1.2560474E1,0E0,1.01893684E2,0E0,0E0,0E0,0E0,0E0,0E0,0E0,0E0,0E0,0E0,0E0,0E0,0E0,0E0,0E0,0E0,0E0,0E0,0E0,0E0,0E0,0E0,0E0,0E0,0E0,0E0,0E0,0E0,0E0,0E0,0E0,0E0,0E0,0E0,0E0,0E0,0E0,0E0,0E0,0E0,0E0,0E0,0E0,0E0,0E0,0E0],"parents":[2147483647,0,0,1,1,2,2,3,3,4,4,5,5,6,6,7,7,8,8,9,9,10,10,11,11,12,12,13,13,14,14,15,15,16,16,17,17,18,18,19,19,20,20,21,21,22,22,23,23,24,24,26,26,27,27,28,28,30,30,31,31,32,32,33,33,34,34,35,35,37,37,38,38,40,40,41,41,42,42,43,43,44,44,45,45,46,46,47,47,48,48,51,51,52,52,53,53,54,54,55,55,56,56,58,58],"right_children":[2,4,6,8,10,12,14,16,18,20,22,24,26,28,30,32,34,36,38,40,42,44,46,48,50,-1,52,54,56,-1,58,60,62,64,66,68,-1,70,72,-1,74,76,78,80,82,84,86,88,90,-1,-1,92,94,96,98,100,102,-1,104,-1,-1,-1,-1,-1,-1,-1,-1,-1,-1,-1,-1,-1,-1,-1,-1,-1,-1,-1,-1,-1,-1,-1,-1,-1,-1,-1,-1,-1,-1,-1,-1,-1,-1,-1,-1,-1,-1,-1,-1,-1,-1,-1,-1,-1,-1],"split_conditions":[1.0397066E0,8.5615987E-1,6.546669E-1,1.0889466E0,-1.6915676E-1,-2.530122E-1,1.8277645E0,-2.530122E-1,-2.530122E-1,1.0951275E0,1.0951275E0,1.8277645E0,1.0889466E0,1.0889466E0,7.938117E-1,8.4269214E-1,-5.3640914E-1,-1.4238021E-1,2.5164872E-1,7.938117E-1,7.938117E-1,-7.334236E-1,7.938117E-1,9.6964806E-1,1.0889466E0,1.5401638E1,1.4337355E0,-1.6915676E-1,7.938117E-1,4.5021057E0,-1.6915676E-1,5.4634266E-2,-1.6915676E-1,1.0951275E0,7.938117E-1,-7.334236E-1,1.2978698E1,7.938117E-1,1.0951275E0,-1.3562098E0,8.4269214E-1,-1.4238021E-1,2.5164872E-1,7.938117E-1,1.0889466E0,-7.334236E-1,2.5164872E-1,-1.6915676E-1,1.0889466E0,6.124329E-1,-8.123284E0,9.6964806E-1,1.8277645E0,1.4337355E0,1.4337355E0,1.4337355E0,8.5615987E-1,2.1575959E0,1.0951275E0,-4.2161924E-1,-2.4065938E0,1.074844E0,-1.2435793E1,-1.2690772E0,4.360387E-1,1.2381698E1,2.550537E0,-1.4635811E0,1.637796E0,1.9413939E0,-6.8597746E-1,-1.0740978E1,1.2988181E0,-5.1318085E-1,3.5807478E-1,-2.4972425E-1,8.4756416E-1,-3.502288E-1,-7.8339297E-1,-1.3157227E0,-1.667623E-1,-9.1932535E-2,3.7411943E-1,1.1140699E0,-5.387196E-1,-1.503466E0,1.1507035E-1,4.5080204E0,-1.3492429E0,5.757621E0,-2.4154663E-2,-4.4309373E0,-1.1840286E0,2.7317674E0,1.0336042E1,-2.714637E-1,1.6589146E0,1.7346056E-1,-2.1784365E0,5.781212E-1,4.0678287E0,-4.904297E-1,1.4918163E-1,-5.5541337E-1,1.3794297E0],"split_indices":[3,7,6,1,1,4,3,4,4,4,4,3,1,1,2,3,3,3,3,2,2,3,2,0,1,0,3,1,2,0,1,3,1,4,2,3,0,2,4,0,3,3,3,2,1,3,3,1,1,0,0,0,3,3,3,3,7,0,4,0,0,0,0,0,0,0,0,0,0,0,0,0,0,0,0,0,0,0,0,0,0,0,0,0,0,0,0,0,0,0,0,0,0,0,0,0,0,0,0,0,0,0,0,0,0],"split_type":[0,0,0,0,0,0,0,0,0,0,0,0,0,0,0,0,0,0,0,0,0,0,0,0,0,0,0,0,0,0,0,0,0,0,0,0,0,0,0,0,0,0,0,0,0,0,0,0,0,0,0,0,0,0,0,0,0,0,0,0,0,0,0,0,0,0,0,0,0,0,0,0,0,0,0,0,0,0,0,0,0,0,0,0,0,0,0,0,0,0,0,0,0,0,0,0,0,0,0,0,0,0,0,0,0],"sum_hessian":[3.22E2,2.52E2,7E1,1.17E2,1.35E2,2E1,5E1,6.7E1,5E1,4.8E1,8.7E1,1.3E1,7E0,4E1,1E1,4.4E1,2.3E1,1.3E1,3.7E1,2.3E1,2.5E1,4.5E1,4.2E1,9E0,4E0,1E0,6E0,2.3E1,1.7E1,1E0,9E0,4.2E1,2E0,1.1E1,1.2E1,7E0,6E0,3E1,7E0,1.1E1,1.2E1,1.2E1,1.3E1,1.4E1,3.1E1,2.3E1,1.9E1,5E0,4E0,2E0,2E0,2E0,4E0,1.1E1,1.2E1,6E0,1.1E1,1E0,8E0,3.2E1,1E1,1E0,1E0,7E0,4E0,1E0,1.1E1,4E0,3E0,1.6E1,1.4E1,4E0,3E0,1.1E1,1E0,7E0,5E0,9E0,4E0,7E0,7E0,1.5E1,1.6E1,7E0,1.6E1,1.3E1,6E0,1E0,4E0,2E0,2E0,1E0,1E0,2E0,2E0,6E0,5E0,6E0,6E0,4E0,2E0,3E0,8E0,4E0,4E0],"tree_param":{"num_deleted":"0","num_feature":"8","num_nodes":"105","size_leaf_vector":"1"}},{"base_weights":[6.663487E-1,-4.2239457E-2,3.1819324E0,1.0019076E0,-9.4787997E-1,7.3445835E0,1.4055089E0,3.6881692E0,-4.229468E-1,-1.2821684E0,-7.5097066E-1,-4.1171592E-1,2.0000034E1,5.7329494E-1,4.3796234E0,-2.2820593E-1,7.811774E0,-2.4775603E0,2.1720798E0,-2.1743023E0,-4.0934598E-1,-3.663661E-1,-1.1634814E0,5.4322753E0,-1.2017355E1,1.3091392E1,1.0389191E1,-6.0727423E-1,2.1155374E0,3.82679E0,2.2663925E0,-1.8075551E0,1.2385479E0,4.1013002E0,2.1628342E1,-6.517514E0,2.2575092E0,1.595352E1,-6.696658E0,-9.8325235E-1,-9.88705E-1,6.00171E-1,-1.3175156E0,5.754757E-1,-1.1492181E0,-1.0612985E-2,-2.4311059E0,-5.792351E-1,8.091385E0,4.8994753E-1,-6.4986258E0,-1.0606044E1,2.0908493E1,1.6815287E0,-2.673302E0,5.6950674E0,-1.4881642E-1,1.833957E0,1.1597273E0,-9.3903965E-1,1.2166901E-1,-2.9503852E-1,7.417457E-1,5.796412E0,-1.6207254E-1,1.1994077E1,6.5528566E-1,-1.1210982E0,-1.0570424E1,-8.065409E-1,5.586701E0,-6.0555127E-2,9.641318E0,6.717828E-1,-4.750849E0,-4.0558735E-1,2.0183717E-1,-1.8417135E-1,6.35673E-1,-2.745484E-1,-7.463284E-1,-1.0352781E0,4.1785538E-1,9.9121547E-1,-5.6212014E-1,-5.423812E-1,6.3433874E-1,-9.4114417E-1,7.8465354E-1,-4.9712934E0,7.1094E0,5.993517E0,-1.7455399E0,-3.7662966E0,-1.0064232E0,2.1854143E0,8.268833E0,1.7679937E0,-3.483081E-1,-1.8541151E0,8.735161E-2,4.393712E-1,3.2542617E0,2.7503082E-1,-2.3886167E-1,-4.3335438E-1,1.0596071E0],"categories":[],"categories_nodes":[],"categories_segments":[],"categories_sizes":[],"default_left":[0,0,0,0,0,0,0,0,0,0,0,0,0,0,0,0,0,0,0,0,0,0,0,0,0,0,0,0,0,0,0,0,0,0,0,0,0,0,0,0,0,0,0,0,0,0,0,0,0,0,0,0,0,0,0,0,0,0,0,0,0,0,0,0,0,0,0,0,0,0,0,0,0,0,0,0,0,0,0,0,0,0,0,0,0,0,0,0,0,0,0,0,0,0,0,0,0,0,0,0,0,0,0,0,0,0,0],"id":12,"left_children":[1,3,5,7,9,11,13,15,17,19,21,23,25,27,29,31,33,35,37,39,41,43,45,47,49,-1,51,53,55,-1,57,59,61,63,65,67,69,71,73,-1,75,77,79,81,83,85,87,89,91,-1,-1,93,95,97,99,101,103,-1,105,-1,-1,-1,-1,-1,-1,-1,-1,-1,-1,-1,-1,-1,-1,-1,-1,-1,-1,-1,-1,-1,-1,-1,-1,-1,-1,-1,-1,-1,-1,-1,-1,-1,-1,-1,-1,-1,-1,-1,-1,-1,-1,-1,-1,-1,-1,-1,-1],"loss_changes":[5.7588605E2,2.40192E2,5.146959E2,4.5320862E2,7.98925E0,2.069583E3,1.2371928E2,6.6391565E2,4.2126007E2,3.7265015E1,1.3535248E1,1.0148071E3,1.3640808E3,7.5934395E1,1.6580258E2,5.320211E1,9.3661584E2,8.5640955E2,4.384675E3,2.8150482E1,2.4627865E1,3.5315517E1,6.1353172E1,1.6453943E2,6.9365515E2,0E0,1.767743E3,1.17984764E2,1.4674332E2,0E0,3.5481537E1,3.3466682E1,3.533345E1,1.2113966E3,1.3400142E3,1.7847007E3,1.7498075E3,3.6669526E3,1.832202E3,0E0,8.755643E0,2.5271034E1,4.315243E0,7.721044E1,9.0078964E1,9.167016E1,7.946767E1,1.9456401E3,1.2736688E3,0E0,0E0,2.6608276E-1,2.5249536E2,1.5050905E2,1.3695605E2,1.3669562E2,9.008121E0,0E0,6.070436E1,0E0,0E0,0E0,0E0,0E0,0E0,0E0,0E0,0E0,0E0,0E0,0E0,0E0,0E0,0E0,0E0,0E0,0E0,0E0,0E0,0E0,0E0,0E0,0E0,0E0,0E0,0E0,0E0,0E0,0E0,0E0,0E0,0E0,0E0,0E0,0E0,0E0,0E0,0E0,0E0,0E0,0E0,0E0,0E0,0E0,0E0,0E0,0E0],"parents":[2147483647,0,0,1,1,2,2,3,3,4,4,5,5,6,6,7,7,8,8,9,9,10,10,11,11,12,12,13,13,14,14,15,15,16,16,17,17,18,18,19,19,20,20,21,21,22,22,23,23,24,24,26,26,27,27,28,28,30,30,31,31,32,32,33,33,34,34,35,35,36,36,37,37,38,38,40,40,41,41,42,42,43,43,44,44,45,45,46,46,47,47,48,48,51,51,52,52,53,53,54,54,55,55,56,56,58,58],"right_children":[2,4,6,8,10,12,14,16,18,20,22,24,26,28,30,32,34,36,38,40,42,44,46,48,50,-1,52,54,56,-1,58,60,62,64,66,68,70,72,74,-1,76,78,80,82,84,86,88,90,92,-1,-1,94,96,98,100,102,104,-1,106,-1,-1,-1,-1,-1,-1,-1,-1,-1,-1,-1,-1,-1,-1,-1,-1,-1,-1,-1,-1,-1,-1,-1,-1,-1,-1,-1,-1,-1,-1,-1,-1,-1,-1,-1,-1,-1,-1,-1,-1,-1,-1,-1,-1,-1,-1,-1,-1],"split_conditions":[1.0397066E0,8.5615987E-1,6.546669E-1,7.938117E-1,-1.6915676E-1,-2.530122E-1,1.8277645E0,-2.530122E-1,1.0889466E0,1.0951275E0,7.938117E-1,1.8277645E0,1.0889466E0,1.0889466E0,7.938117E-1,9.6964806E-1,-1.4238021E-1,-2.530122E-1,-2.530122E-1,7.938117E-1,7.938117E-1,1.0889466E0,1.0951275E0,1.236721E0,1.0889466E0,1.3091392E1,1.4337355E0,-1.6915676E-1,7.938117E-1,3.82679E0,-1.6915676E-1,-1.6915676E-1,-9.304381E-1,1.0889466E0,1.0951275E0,6.456777E-1,2.5164872E-1,-1.4238021E-1,-1.4238021E-1,-9.8325235E-1,6.456777E-1,-1.4238021E-1,6.456777E-1,-1.1274525E0,-1.1274525E0,1.0889466E0,6.456777E-1,1.0889466E0,1.0889466E0,4.8994753E-1,-6.4986258E0,9.6964806E-1,1.8277645E0,7.938117E-1,7.938117E-1,1.4337355E0,1.0951275E0,1.833957E0,9.6964806E-1,-9.3903965E-1,1.2166901E-1,-2.9503852E-1,7.417457E-1,5.796412E0,-1.6207254E-1,1.1994077E1,6.5528566E-1,-1.1210982E0,-1.0570424E1,-8.065409E-1,5.586701E0,-6.0555127E-2,9.641318E0,6.717828E-1,-4.750849E0,-4.0558735E-1,2.0183717E-1,-1.8417135E-1,6.35673E-1,-2.745484E-1,-7.463284E-1,-1.0352781E0,4.1785538E-1,9.9121547E-1,-5.6212014E-1,-5.423812E-1,6.3433874E-1,-9.4114417E-1,7.8465354E-1,-4.9712934E0,7.1094E0,5.993517E0,-1.7455399E0,-3.7662966E0,-1.0064232E0,2.1854143E0,8.268833E0,1.7679937E0,-3.483081E-1,-1.8541151E0,8.735161E-2,4.393712E-1,3.2542617E0,2.7503082E-1,-2.3886167E-1,-4.3335438E-1,1.0596071E0],"split_indices":[3,7,6,2,1,4,3,4,1,4,2,3,1,1,2,0,3,4,4,2,2,1,4,3,1,0,3,1,2,0,1,1,3,1,4,3,3,3,3,0,3,3,3,3,3,1,3,1,1,0,0,0,3,2,2,3,4,0,0,0,0,0,0,0,0,0,0,0,0,0,0,0,0,0,0,0,0,0,0,0,0,0,0,0,0,0,0,0,0,0,0,0,0,0,0,0,0,0,0,0,0,0,0,0,0,0,0],"split_type":[0,0,0,0,0,0,0,0,0,0,0,0,0,0,0,0,0,0,0,0,0,0,0,0,0,0,0,0,0,0,0,0,0,0,0,0,0,0,0,0,0,0,0,0,0,0,0,0,0,0,0,0,0,0,0,0,0,0,0,0,0,0,0,0,0,0,0,0,0,0,0,0,0,0,0,0,0,0,0,0,0,0,0,0,0,0,0,0,0,0,0,0,0,0,0,0,0,0,0,0,0,0,0,0,0,0,0],"sum_hessian":[3.22E2,2.52E2,7E1,1.17E2,1.35E2,2E1,5E1,4E1,7.7E1,4.8E1,8.7E1,1.3E1,7E0,4E1,1E1,2.1E1,1.9E1,4.3E1,3.4E1,2.3E1,2.5E1,4.6E1,4.1E1,9E0,4E0,1E0,6E0,2.3E1,1.7E1,1E0,9E0,1E1,1.1E1,1.6E1,3E0,2.3E1,2E1,1.3E1,2.1E1,1.1E1,1.2E1,1.2E1,1.3E1,2.1E1,2.5E1,2.2E1,1.9E1,3E0,6E0,2E0,2E0,2E0,4E0,1.1E1,1.2E1,6E0,1.1E1,1E0,8E0,6E0,4E0,4E0,7E0,3E0,1.3E1,1E0,2E0,2.2E1,1E0,1.6E1,4E0,7E0,6E0,1.1E1,1E1,1E1,2E0,7E0,5E0,1.1E1,2E0,3E0,1.8E1,3E0,2.2E1,1.2E1,1E1,1.7E1,2E0,2E0,1E0,3E0,3E0,1E0,1E0,2E0,2E0,4E0,7E0,5E0,7E0,4E0,2E0,4E0,7E0,4E0,4E0],"tree_param":{"num_deleted":"0","num_feature":"8","num_nodes":"107","size_leaf_vector":"1"}},{"base_weights":[6.005438E-1,2.7721548E-2,2.633269E0,8.411949E-1,-6.7829007E-1,6.0531287E0,1.1734586E0,3.0186245E0,-3.14136E-1,-9.3336266E-1,-5.285532E-1,-2.6124355E-1,1.634664E1,4.8381174E-1,3.6372826E0,-1.7659135E-1,6.382431E0,-1.8913685E0,1.6776459E0,-1.5714699E0,-3.0844197E-1,-1.6037102E-1,-8.6123323E-1,4.4412003E0,-9.613882E0,1.1127682E1,8.084083E0,-4.3955293E-1,1.6880862E0,3.2527704E0,1.8324974E0,-1.2164747E0,1.1929162E0,3.2023458E0,1.8302185E1,-5.0494065E0,1.8078829E0,1.18518E1,-4.8730726E0,-7.1285766E-1,-7.077672E-1,4.5484954E-1,-9.951811E-1,-2.112852E0,2.779684E-1,1.260682E-1,-1.7715124E0,4.577511E0,1.5439181E0,1.3065287E0,-5.1989E0,-9.015137E0,1.6726797E1,1.5498601E0,-2.558121E0,4.514207E0,-1.0115814E-1,1.5588639E0,8.8139427E-1,-6.0575575E-1,-7.199446E-2,-2.5558892E-1,1.8744867E0,4.492218E0,-1.16922E-1,1.0194965E1,5.2423096E-1,-7.993915E-1,-8.984861E0,-3.8606834E-1,6.241654E0,-4.4659283E-2,7.16212E0,-3.1382363E0,8.6347896E-1,2.0507487E-2,-4.1483495E-1,-1.3582678E-1,4.7675458E-1,-4.6821335E-1,-1.1278339E-1,-2.8674066E-1,-9.092855E-1,-1.7878218E-1,3.869237E-1,6.743037E-1,-6.0181457E-1,-1.3865514E-1,-9.830652E-1,-3.000049E0,1.8812466E0,1.04017645E-1,4.839203E-1,-3.2013521E0,-8.5545963E-1,7.0614324E0,1.3019669E0,1.2842921E0,-1.1028347E0,-2.496381E0,1.3775718E0,4.6289064E-2,2.3236697E0,2.0580989E-1,-3.0080643E-1,-4.972646E-1,9.732175E-1],"categories":[],"categories_nodes":[],"categories_segments":[],"categories_sizes":[],"default_left":[0,0,0,0,0,0,0,0,0,0,0,0,0,0,0,0,0,0,0,0,0,0,0,0,0,0,0,0,0,0,0,0,0,0,0,0,0,0,0,0,0,0,0,0,0,0,0,0,0,0,0,0,0,0,0,0,0,0,0,0,0,0,0,0,0,0,0,0,0,0,0,0,0,0,0,0,0,0,0,0,0,0,0,0,0,0,0,0,0,0,0,0,0,0,0,0,0,0,0,0,0,0,0,0,0,0,0],"id":13,"left_children":[1,3,5,7,9,11,13,15,17,19,21,23,25,27,29,31,33,35,37,39,41,43,45,47,49,-1,51,53,55,-1,57,59,61,63,65,67,69,71,73,-1,75,77,79,81,83,85,87,-1,89,91,-1,93,95,97,99,101,103,-1,105,-1,-1,-1,-1,-1,-1,-1,-1,-1,-1,-1,-1,-1,-1,-1,-1,-1,-1,-1,-1,-1,-1,-1,-1,-1,-1,-1,-1,-1,-1,-1,-1,-1,-1,-1,-1,-1,-1,-1,-1,-1,-1,-1,-1,-1,-1,-1,-1],"loss_changes":[3.7602502E2,1.4587396E2,3.4735358E2,2.9779517E2,4.7010193E0,1.3692087E3,8.489784E1,4.4179865E2,2.482103E2,1.9054852E1,1.0640722E1,6.5842084E2,1.0714387E3,4.6333366E1,1.2317493E2,3.2781967E1,6.995067E2,5.2315326E2,2.3904355E3,1.4999187E1,1.4081393E1,3.7388832E1,4.1564445E1,2.8984625E2,4.439393E2,0E0,1.1852803E3,1.0511771E2,9.147583E1,0E0,2.741249E1,9.705378E0,1.0869956E2,7.2468115E2,9.7899854E2,1.3453401E3,1.2614365E3,2.0233501E3,9.829785E2,0E0,6.9051857E0,1.41033535E1,4.3160143E0,5.601307E0,3.2599854E1,1.0854996E2,4.57901E1,0E0,5.538191E2,3.233595E-1,0E0,1.9226074E-1,3.197024E2,2.0128284E2,5.3269055E2,9.7423904E1,9.203993E0,0E0,5.93652E1,0E0,0E0,0E0,0E0,0E0,0E0,0E0,0E0,0E0,0E0,0E0,0E0,0E0,0E0,0E0,0E0,0E0,0E0,0E0,0E0,0E0,0E0,0E0,0E0,0E0,0E0,0E0,0E0,0E0,0E0,0E0,0E0,0E0,0E0,0E0,0E0,0E0,0E0,0E0,0E0,0E0,0E0,0E0,0E0,0E0,0E0,0E0,0E0],"parents":[2147483647,0,0,1,1,2,2,3,3,4,4,5,5,6,6,7,7,8,8,9,9,10,10,11,11,12,12,13,13,14,14,15,15,16,16,17,17,18,18,19,19,20,20,21,21,22,22,23,23,24,24,26,26,27,27,28,28,30,30,31,31,32,32,33,33,34,34,35,35,36,36,37,37,38,38,40,40,41,41,42,42,43,43,44,44,45,45,46,46,48,48,49,49,51,51,52,52,53,53,54,54,55,55,56,56,58,58],"right_children":[2,4,6,8,10,12,14,16,18,20,22,24,26,28,30,32,34,36,38,40,42,44,46,48,50,-1,52,54,56,-1,58,60,62,64,66,68,70,72,74,-1,76,78,80,82,84,86,88,-1,90,92,-1,94,96,98,100,102,104,-1,106,-1,-1,-1,-1,-1,-1,-1,-1,-1,-1,-1,-1,-1,-1,-1,-1,-1,-1,-1,-1,-1,-1,-1,-1,-1,-1,-1,-1,-1,-1,-1,-1,-1,-1,-1,-1,-1,-1,-1,-1,-1,-1,-1,-1,-1,-1,-1,-1],"split_conditions":[1.0397066E0,8.5615987E-1,6.546669E-1,7.938117E-1,-1.6915676E-1,-2.530122E-1,1.8277645E0,-2.530122E-1,1.0889466E0,1.0951275E0,1.0889466E0,1.8277645E0,1.0889466E0,1.0889466E0,7.938117E-1,-3.3939466E-1,-1.4238021E-1,-2.530122E-1,-2.530122E-1,7.938117E-1,7.938117E-1,-1.1274525E0,1.0951275E0,-1.6915676E-1,1.0889466E0,1.1127682E1,1.4337355E0,1.0951275E0,7.938117E-1,3.2527704E0,-1.6915676E-1,9.6964806E-1,-1.6915676E-1,1.0889466E0,1.0951275E0,6.456777E-1,6.456777E-1,-1.4238021E-1,1.0951275E0,-7.1285766E-1,9.6964806E-1,-1.4238021E-1,9.6964806E-1,1.0951275E0,1.0951275E0,9.6964806E-1,7.938117E-1,4.577511E0,1.236721E0,9.6964806E-1,-5.1989E0,9.6964806E-1,9.6964806E-1,9.6964806E-1,9.6964806E-1,1.0951275E0,9.6964806E-1,1.5588639E0,1.0951275E0,-6.0575575E-1,-7.199446E-2,-2.5558892E-1,1.8744867E0,4.492218E0,-1.16922E-1,1.0194965E1,5.2423096E-1,-7.993915E-1,-8.984861E0,-3.8606834E-1,6.241654E0,-4.4659283E-2,7.16212E0,-3.1382363E0,8.6347896E-1,2.0507487E-2,-4.1483495E-1,-1.3582678E-1,4.7675458E-1,-4.6821335E-1,-1.1278339E-1,-2.8674066E-1,-9.092855E-1,-1.7878218E-1,3.869237E-1,6.743037E-1,-6.0181457E-1,-1.3865514E-1,-9.830652E-1,-3.000049E0,1.8812466E0,1.04017645E-1,4.839203E-1,-3.2013521E0,-8.5545963E-1,7.0614324E0,1.3019669E0,1.2842921E0,-1.1028347E0,-2.496381E0,1.3775718E0,4.6289064E-2,2.3236697E0,2.0580989E-1,-3.0080643E-1,-4.972646E-1,9.732175E-1],"split_indices":[3,7,6,2,1,4,3,4,1,4,1,3,1,1,2,3,3,4,4,2,2,3,4,1,1,0,3,4,2,0,1,0,1,1,4,3,3,3,4,0,0,3,0,4,4,0,2,0,3,0,0,0,0,0,0,4,0,0,4,0,0,0,0,0,0,0,0,0,0,0,0,0,0,0,0,0,0,0,0,0,0,0,0,0,0,0,0,0,0,0,0,0,0,0,0,0,0,0,0,0,0,0,0,0,0,0,0],"split_type":[0,0,0,0,0,0,0,0,0,0,0,0,0,0,0,0,0,0,0,0,0,0,0,0,0,0,0,0,0,0,0,0,0,0,0,0,0,0,0,0,0,0,0,0,0,0,0,0,0,0,0,0,0,0,0,0,0,0,0,0,0,0,0,0,0,0,0,0,0,0,0,0,0,0,0,0,0,0,0,0,0,0,0,0,0,0,0,0,0,0,0,0,0,0,0,0,0,0,0,0,0,0,0,0,0,0,0],"sum_hessian":[3.22E2,2.52E2,7E1,1.17E2,1.35E2,2E1,5E1,4E1,7.7E1,4.8E1,8.7E1,1.3E1,7E0,4E1,1E1,2.1E1,1.9E1,4.3E1,3.4E1,2.3E1,2.5E1,4.2E1,4.5E1,9E0,4E0,1E0,6E0,2.3E1,1.7E1,1E0,9E0,1.2E1,9E0,1.6E1,3E0,2.3E1,2E1,1.3E1,2.1E1,1.1E1,1.2E1,1.2E1,1.3E1,7E0,3.5E1,2.2E1,2.3E1,1E0,8E0,2E0,2E0,2E0,4E0,1.2E1,1.1E1,6E0,1.1E1,1E0,8E0,6E0,6E0,7E0,2E0,3E0,1.3E1,1E0,2E0,2.2E1,1E0,1.8E1,2E0,7E0,6E0,1.2E1,9E0,6E0,6E0,7E0,5E0,6E0,7E0,4E0,3E0,1.9E1,1.6E1,1.1E1,1.1E1,1.3E1,1E1,2E0,6E0,1E0,1E0,1E0,1E0,2E0,2E0,8E0,4E0,6E0,5E0,3E0,3E0,6E0,5E0,4E0,4E0],"tree_param":{"num_deleted":"0","num_feature":"8","num_nodes":"107","size_leaf_vector":"1"}},{"base_weights":[5.2710664E-1,7.302307E-2,2.137755E0,5.414817E-1,-8.270414E-1,4.9172845E0,9.513262E-1,1.6486071E0,-5.988453E-1,9.325768E-1,-1.9734489E0,-2.6517597E-1,1.3371929E1,3.7129295E-1,3.026784E0,8.8886493E-1,7.2577868E0,-4.8174658E-1,-8.002794E-1,8.950693E0,-1.0349885E0,-5.614108E0,7.9134494E-1,4.9277534E0,-6.1620703E0,9.4585285E0,6.2740827E0,-3.4674248E-1,1.3080461E0,2.7648537E0,1.4862267E0,-1.5540572E0,1.7890881E0,1.086604E0,1.624291E1,-9.061162E-1,-4.017169E-2,4.0766644E-1,-1.203156E0,8.139E-1,8.665718E0,-4.3567886E0,-3.4621783E-2,2.3379216E0,-8.014838E0,2.5089438E0,-6.401494E-1,-2.4828553E0,1.2959076E1,7.671833E0,-5.536637E0,-2.7737365E0,1.926242E1,1.4455866E0,-1.9745275E0,2.9085042E0,-1.0560894E0,1.3250337E0,6.698566E-1,-1.0014118E0,2.0587127E0,7.96088E-1,-4.806065E-1,-8.065625E-1,9.4031113E-1,1.0670252E1,-6.163368E-1,-3.9873582E-1,-6.940565E-2,-3.4265965E-1,1.14468336E-1,7.3841774E-1,-3.9505428E-1,-5.3137094E-1,-1.0330084E-1,-3.214657E-1,9.1696095E-1,-2.5519726E-1,1.63032E-1,-4.379079E0,-1.6371022E0,-2.647474E-1,1.3717175E-2,-4.1347814E0,2.8933535E0,7.5052648E0,-3.482451E0,4.1033525E0,3.33165E-1,-2.2988603E0,9.1199195E-1,7.0948796E0,1.5732102E0,-2.9207057E-1,1.2081009E0,2.821039E-1,-1.3821979E0,-2.4497649E-1,2.26258E0,1.1198983E0,-1.4028416E0,-3.8646424E-1,7.481868E-1],"categories":[],"categories_nodes":[],"categories_segments":[],"categories_sizes":[],"default_left":[0,0,0,0,0,0,0,0,0,0,0,0,0,0,0,0,0,0,0,0,0,0,0,0,0,0,0,0,0,0,0,0,0,0,0,0,0,0,0,0,0,0,0,0,0,0,0,0,0,0,0,0,0,0,0,0,0,0,0,0,0,0,0,0,0,0,0,0,0,0,0,0,0,0,0,0,0,0,0,0,0,0,0,0,0,0,0,0,0,0,0,0,0,0,0,0,0,0,0,0,0,0,0],"id":14,"left_children":[1,3,5,7,9,11,13,15,17,19,21,23,25,27,29,31,33,35,37,39,41,43,45,47,49,-1,51,53,55,-1,57,59,61,63,65,67,69,71,73,75,-1,-1,77,-1,79,-1,81,83,85,87,-1,89,91,93,95,97,99,-1,101,-1,-1,-1,-1,-1,-1,-1,-1,-1,-1,-1,-1,-1,-1,-1,-1,-1,-1,-1,-1,-1,-1,-1,-1,-1,-1,-1,-1,-1,-1,-1,-1,-1,-1,-1,-1,-1,-1,-1,-1,-1,-1,-1,-1],"loss_changes":[2.3607605E2,1.0712349E2,2.2945972E2,2.1182228E2,1.7734023E2,9.23679E2,6.0271736E1,3.5577893E2,1.5722446E0,5.6142975E2,5.379233E2,4.5907535E2,8.331642E2,2.8031054E1,9.1188965E1,1.6991766E2,5.3683875E2,1.02701025E1,1.4603428E1,1.1119407E3,3.9078223E2,8.027618E2,3.4136234E2,5.0831146E2,1.3320458E3,0E0,8.7604175E2,7.2874985E1,7.117824E1,0E0,2.0965542E1,3.382169E2,1.6842885E2,6.2541195E1,1.4874286E3,7.684469E0,1.3449126E1,3.1574715E1,1.0123426E1,2.864554E1,0E0,0E0,1.3670413E1,0E0,2.57062E2,0E0,4.528178E0,8.181073E2,1.4753817E3,1.4243855E2,0E0,1.6541486E2,6.048413E1,7.885872E1,1.0409805E2,1.9601811E2,1.5614973E2,0E0,3.535819E1,0E0,0E0,0E0,0E0,0E0,0E0,0E0,0E0,0E0,0E0,0E0,0E0,0E0,0E0,0E0,0E0,0E0,0E0,0E0,0E0,0E0,0E0,0E0,0E0,0E0,0E0,0E0,0E0,0E0,0E0,0E0,0E0,0E0,0E0,0E0,0E0,0E0,0E0,0E0,0E0,0E0,0E0,0E0,0E0],"parents":[2147483647,0,0,1,1,2,2,3,3,4,4,5,5,6,6,7,7,8,8,9,9,10,10,11,11,12,12,13,13,14,14,15,15,16,16,17,17,18,18,19,19,20,20,21,21,22,22,23,23,24,24,26,26,27,27,28,28,30,30,31,31,32,32,33,33,34,34,35,35,36,36,37,37,38,38,39,39,42,42,44,44,46,46,47,47,48,48,49,49,51,51,52,52,53,53,54,54,55,55,56,56,58,58],"right_children":[2,4,6,8,10,12,14,16,18,20,22,24,26,28,30,32,34,36,38,40,42,44,46,48,50,-1,52,54,56,-1,58,60,62,64,66,68,70,72,74,76,-1,-1,78,-1,80,-1,82,84,86,88,-1,90,92,94,96,98,100,-1,102,-1,-1,-1,-1,-1,-1,-1,-1,-1,-1,-1,-1,-1,-1,-1,-1,-1,-1,-1,-1,-1,-1,-1,-1,-1,-1,-1,-1,-1,-1,-1,-1,-1,-1,-1,-1,-1,-1,-1,-1,-1,-1,-1,-1],"split_conditions":[1.0397066E0,5.4634266E-2,6.546669E-1,8.5615987E-1,7.938117E-1,-2.530122E-1,1.8277645E0,-1.4238021E-1,1.0889466E0,6.546669E-1,6.546669E-1,1.6307501E0,1.0889466E0,1.0889466E0,7.938117E-1,-1.1274525E0,1.0889466E0,1.0951275E0,-1.1274525E0,-1.6915676E-1,8.5615987E-1,-1.6915676E-1,8.5615987E-1,1.0889466E0,1.0889466E0,9.4585285E0,1.8277645E0,-1.6915676E-1,9.6964806E-1,2.7648537E0,-1.6915676E-1,1.0951275E0,-3.3939466E-1,-1.6915676E-1,-2.530122E-1,-5.3640914E-1,-1.1274525E0,7.938117E-1,7.938117E-1,6.456777E-1,8.665718E0,-4.3567886E0,9.6964806E-1,2.3379216E0,2.5164872E-1,2.5089438E0,1.0889466E0,1.236721E0,1.4337355E0,1.8277645E0,-5.536637E0,1.4337355E0,9.6964806E-1,1.4337355E0,1.4337355E0,1.5597091E0,1.0951275E0,1.3250337E0,9.6964806E-1,-1.0014118E0,2.0587127E0,7.96088E-1,-4.806065E-1,-8.065625E-1,9.4031113E-1,1.0670252E1,-6.163368E-1,-3.9873582E-1,-6.940565E-2,-3.4265965E-1,1.14468336E-1,7.3841774E-1,-3.9505428E-1,-5.3137094E-1,-1.0330084E-1,-3.214657E-1,9.1696095E-1,-2.5519726E-1,1.63032E-1,-4.379079E0,-1.6371022E0,-2.647474E-1,1.3717175E-2,-4.1347814E0,2.8933535E0,7.5052648E0,-3.482451E0,4.1033525E0,3.33165E-1,-2.2988603E0,9.1199195E-1,7.0948796E0,1.5732102E0,-2.9207057E-1,1.2081009E0,2.821039E-1,-1.3821979E0,-2.4497649E-1,2.26258E0,1.1198983E0,-1.4028416E0,-3.8646424E-1,7.481868E-1],"split_indices":[3,3,6,7,2,4,3,3,1,6,6,3,1,1,2,3,1,4,3,1,7,1,7,1,1,0,3,1,0,0,1,4,3,1,4,3,3,2,2,3,0,0,0,0,3,0,1,3,3,3,0,3,0,3,3,5,4,0,0,0,0,0,0,0,0,0,0,0,0,0,0,0,0,0,0,0,0,0,0,0,0,0,0,0,0,0,0,0,0,0,0,0,0,0,0,0,0,0,0,0,0,0,0],"split_type":[0,0,0,0,0,0,0,0,0,0,0,0,0,0,0,0,0,0,0,0,0,0,0,0,0,0,0,0,0,0,0,0,0,0,0,0,0,0,0,0,0,0,0,0,0,0,0,0,0,0,0,0,0,0,0,0,0,0,0,0,0,0,0,0,0,0,0,0,0,0,0,0,0,0,0,0,0,0,0,0,0,0,0,0,0,0,0,0,0,0,0,0,0,0,0,0,0,0,0,0,0,0,0],"sum_hessian":[3.22E2,2.52E2,7E1,1.66E2,8.6E1,2E1,5E1,8.4E1,8.2E1,3.4E1,5.2E1,1.3E1,7E0,4E1,1E1,7.5E1,9E0,5.4E1,2.8E1,6E0,2.8E1,2.2E1,3E1,7E0,6E0,1E0,6E0,2.3E1,1.7E1,1E0,9E0,2E1,5.5E1,6E0,3E0,2.7E1,2.7E1,7E0,2.1E1,5E0,1E0,1E0,2.7E1,3E0,1.9E1,4E0,2.6E1,4E0,3E0,3E0,3E0,4E0,2E0,1.1E1,1.2E1,1E1,7E0,1E0,8E0,1.7E1,3E0,4.4E1,1.1E1,2E0,4E0,1E0,2E0,1.6E1,1.1E1,7E0,2E1,3E0,4E0,1.2E1,9E0,3E0,2E0,1.1E1,1.6E1,4E0,1.5E1,1.9E1,7E0,2E0,2E0,2E0,1E0,1E0,2E0,2E0,2E0,1E0,1E0,6E0,5E0,6E0,6E0,6E0,4E0,3E0,4E0,4E0,4E0],"tree_param":{"num_deleted":"0","num_feature":"8","num_nodes":"103","size_leaf_vector":"1"}},{"base_weights":[4.8782325E-1,1.0631311E-1,1.8404181E0,2.9594842E-1,-1.2612671E0,4.31929E0,7.836195E-1,-3.1279045E-1,1.2879337E0,-3.9564896E0,2.116446E-2,-6.553323E-2,1.145282E1,2.9772493E-1,2.523443E0,6.5697294E-1,-1.1734877E0,9.055244E0,1.09653985E-2,1.8776678E0,-1.0166181E1,1.3529801E0,-4.0734518E-1,4.511101E0,-2.3839593E0,8.039749E0,5.432033E0,-2.5038958E-1,1.012004E0,2.3501267E0,1.2090362E0,-1.4551458E0,1.5417688E0,-2.6407957E0,-1.6920485E-1,3.6919634E0,1.02077E1,-1.7793789E0,1.4953736E0,-1.0485355E1,5.320743E0,4.7195435E0,-6.4989533E0,-7.6228523E-1,5.93174E-2,-9.123627E0,-3.2914457E-1,-2.218988E0,1.6373056E1,1.1413375E0,-1.737228E0,2.9624732E0,-2.1010335E-1,1.276371E0,3.979136E-1,2.6416537E-1,-9.2569697E-1,2.098864E0,-9.576187E-2,4.6753556E-1,-1.6580625E0,-2.7739638E-1,1.5910228E-1,3.7130697E0,-1.6824899E0,-4.572073E0,8.845766E-1,3.387802E0,-6.0879755E-1,7.335686E-1,-7.3915663E0,-4.7585908E-1,2.5996537E0,-5.1337194E-1,2.7254975E-1,1.7806363E-1,-4.1551897E-1,-9.472838E0,5.367206E0,2.4532251E0,-2.6342547E0,-2.37632E0,3.5603943E-1,6.0306478E0,1.3372284E0,1.5043017E0,-3.4114355E-1,-1.7748115E0,1.0282766E0,-5.4553073E-2,2.164653E0,-1.9038977E-1,2.3928395E-1,1.1262795E0,-1.4727402E-1],"categories":[],"categories_nodes":[],"categories_segments":[],"categories_sizes":[],"default_left":[0,0,0,0,0,0,0,0,0,0,0,0,0,0,0,0,0,0,0,0,0,0,0,0,0,0,0,0,0,0,0,0,0,0,0,0,0,0,0,0,0,0,0,0,0,0,0,0,0,0,0,0,0,0,0,0,0,0,0,0,0,0,0,0,0,0,0,0,0,0,0,0,0,0,0,0,0,0,0,0,0,0,0,0,0,0,0,0,0,0,0,0,0,0,0],"id":15,"left_children":[1,3,5,7,9,11,13,15,17,19,21,23,25,27,29,31,33,35,37,39,41,-1,43,-1,45,-1,47,49,51,-1,53,55,57,59,61,63,-1,65,67,69,-1,71,-1,73,75,77,79,81,83,85,87,89,91,-1,93,-1,-1,-1,-1,-1,-1,-1,-1,-1,-1,-1,-1,-1,-1,-1,-1,-1,-1,-1,-1,-1,-1,-1,-1,-1,-1,-1,-1,-1,-1,-1,-1,-1,-1,-1,-1,-1,-1,-1,-1],"loss_changes":[1.664816E2,6.598666E1,1.8261179E2,1.3506366E2,1.0723333E2,6.5761523E2,4.2362625E1,1.1679046E2,8.429825E2,3.8137183E2,4.415368E1,5.2604517E2,5.9360254E2,1.6305172E1,6.730772E1,1.255839E2,1.0859899E2,1.481459E3,1.9932338E2,1.3622937E3,9.579459E2,0E0,3.5235991E0,0E0,1.7703099E2,0E0,6.2230164E2,5.1645325E1,4.3528717E1,0E0,2.3010063E1,7.888466E1,4.793107E2,3.721942E2,2.4271605E1,9.5790735E2,0E0,2.2087832E3,1.43875E3,7.922833E2,0E0,8.8391975E1,0E0,2.058064E1,8.5383835E0,2.3845352E3,8.6264886E2,1.0650101E2,4.369983E1,1.2042139E2,2.7927115E2,9.492235E1,5.6398516E0,0E0,2.869196E1,0E0,0E0,0E0,0E0,0E0,0E0,0E0,0E0,0E0,0E0,0E0,0E0,0E0,0E0,0E0,0E0,0E0,0E0,0E0,0E0,0E0,0E0,0E0,0E0,0E0,0E0,0E0,0E0,0E0,0E0,0E0,0E0,0E0,0E0,0E0,0E0,0E0,0E0,0E0,0E0],"parents":[2147483647,0,0,1,1,2,2,3,3,4,4,5,5,6,6,7,7,8,8,9,9,10,10,11,11,12,12,13,13,14,14,15,15,16,16,17,17,18,18,19,19,20,20,22,22,24,24,26,26,27,27,28,28,30,30,31,31,32,32,33,33,34,34,35,35,37,37,38,38,39,39,41,41,43,43,44,44,45,45,46,46,47,47,48,48,49,49,50,50,51,51,52,52,54,54],"right_children":[2,4,6,8,10,12,14,16,18,20,22,24,26,28,30,32,34,36,38,40,42,-1,44,-1,46,-1,48,50,52,-1,54,56,58,60,62,64,-1,66,68,70,-1,72,-1,74,76,78,80,82,84,86,88,90,92,-1,94,-1,-1,-1,-1,-1,-1,-1,-1,-1,-1,-1,-1,-1,-1,-1,-1,-1,-1,-1,-1,-1,-1,-1,-1,-1,-1,-1,-1,-1,-1,-1,-1,-1,-1,-1,-1,-1,-1,-1,-1],"split_conditions":[1.0397066E0,6.456777E-1,6.546669E-1,1.0889466E0,6.546669E-1,-2.530122E-1,1.8277645E0,9.6964806E-1,-2.530122E-1,1.0889466E0,8.5615987E-1,-1.6915676E-1,1.0889466E0,1.0889466E0,7.938117E-1,-2.530122E-1,6.546669E-1,4.486632E-1,9.6964806E-1,-2.530122E-1,-2.530122E-1,1.3529801E0,9.6964806E-1,4.511101E0,1.236721E0,8.039749E0,1.8277645E0,1.0951275E0,7.938117E-1,2.3501267E0,8.5615987E-1,-7.334236E-1,8.5615987E-1,-1.6915676E-1,-1.6915676E-1,9.6964806E-1,1.02077E1,6.546669E-1,6.546669E-1,-1.6915676E-1,5.320743E0,9.6964806E-1,-6.4989533E0,1.0889466E0,1.0889466E0,1.0889466E0,1.0889466E0,1.236721E0,9.6964806E-1,7.938117E-1,9.6964806E-1,1.4337355E0,1.6307501E0,1.276371E0,-1.6915676E-1,2.6416537E-1,-9.2569697E-1,2.098864E0,-9.576187E-2,4.6753556E-1,-1.6580625E0,-2.7739638E-1,1.5910228E-1,3.7130697E0,-1.6824899E0,-4.572073E0,8.845766E-1,3.387802E0,-6.0879755E-1,7.335686E-1,-7.3915663E0,-4.7585908E-1,2.5996537E0,-5.1337194E-1,2.7254975E-1,1.7806363E-1,-4.1551897E-1,-9.472838E0,5.367206E0,2.4532251E0,-2.6342547E0,-2.37632E0,3.5603943E-1,6.0306478E0,1.3372284E0,1.5043017E0,-3.4114355E-1,-1.7748115E0,1.0282766E0,-5.4553073E-2,2.164653E0,-1.9038977E-1,2.3928395E-1,1.1262795E0,-1.4727402E-1],"split_indices":[3,3,6,1,6,4,3,0,4,1,7,1,1,1,2,4,6,3,0,4,4,0,0,0,3,0,3,4,2,0,7,3,7,1,1,0,0,6,6,1,0,0,0,1,1,1,1,3,0,2,0,3,3,0,1,0,0,0,0,0,0,0,0,0,0,0,0,0,0,0,0,0,0,0,0,0,0,0,0,0,0,0,0,0,0,0,0,0,0,0,0,0,0,0,0],"split_type":[0,0,0,0,0,0,0,0,0,0,0,0,0,0,0,0,0,0,0,0,0,0,0,0,0,0,0,0,0,0,0,0,0,0,0,0,0,0,0,0,0,0,0,0,0,0,0,0,0,0,0,0,0,0,0,0,0,0,0,0,0,0,0,0,0,0,0,0,0,0,0,0,0,0,0,0,0,0,0,0,0,0,0,0,0,0,0,0,0,0,0,0,0,0,0],"sum_hessian":[3.22E2,2.52E2,7E1,2.22E2,3E1,2E1,5E1,1.38E2,8.4E1,9E0,2.1E1,1.3E1,7E0,4E1,1E1,6.5E1,7.3E1,1.1E1,7.3E1,5E0,4E0,1E0,2E1,1E0,1.2E1,1E0,6E0,2.3E1,1.7E1,1E0,9E0,1.9E1,4.6E1,2.9E1,4.4E1,1E1,1E0,3.3E1,4E1,3E0,2E0,2E0,2E0,1.1E1,9E0,2E0,1E1,4E0,2E0,1.2E1,1.1E1,6E0,1.1E1,1E0,8E0,8E0,1.1E1,1.1E1,3.5E1,1.2E1,1.7E1,2.1E1,2.3E1,5E0,5E0,8E0,2.5E1,1E1,3E1,2E0,1E0,1E0,1E0,7E0,4E0,7E0,2E0,1E0,1E0,5E0,5E0,1E0,3E0,1E0,1E0,4E0,8E0,6E0,5E0,4E0,2E0,8E0,3E0,1E0,7E0],"tree_param":{"num_deleted":"0","num_feature":"8","num_nodes":"95","size_leaf_vector":"1"}},{"base_weights":[4.260512E-1,1.0020899E-1,1.5811502E0,6.6628504E-1,-3.3290613E-1,3.671683E0,6.893395E-1,2.2288308E0,-2.5843868E-1,2.7938658E-1,-1.3894726E0,-2.9840741E-2,9.69039E0,2.7122694E-1,2.185092E0,-5.232461E-1,4.200021E0,-7.6582646E-1,2.4203385E-1,2.5380206E0,-5.551022E-1,-4.14927E0,7.0294076E-1,3.8344347E0,-1.9985129E0,6.8337846E0,4.566365E0,1.223567E0,-1.1875E-1,1.9976075E0,1.0718628E0,-1.8659223E0,4.642601E0,4.7900528E-1,8.554038E0,-2.709907E0,2.3812325E-1,2.234711E0,-7.2413254E-1,3.4155032E-1,1.3984102E1,-1.24193035E-1,-3.366152E0,6.0372887E0,-5.9791183E0,1.8455998E0,-3.321789E-1,-7.7550864E0,-2.468553E-1,-1.9573486E0,1.3917099E1,3.6701736E0,-4.58508E-1,-1.42098E0,8.2834667E-1,1.084916E0,3.8731724E-1,-1.105471E0,2.2179843E-1,2.8225892E0,-2.468567E-2,-1.5899152E-1,7.2034746E-1,8.5469055E0,1.1134516E0,-2.049035E-1,-1.0913936E0,-4.3630257E-1,3.5257566E-1,2.2039585E-1,9.603693E-1,-7.1218276E-1,2.225142E-1,3.750125E-1,-1.2177513E0,-8.152695E-2,8.512753E0,3.147681E-1,-4.5081508E-1,4.2535746E-1,-2.910189E0,3.8596803E-1,2.1576035E0,-2.7001739E0,-9.644289E-1,2.2246553E-2,-1.8485048E-1,-8.051912E0,4.5621233E0,1.8399193E0,-1.9756898E0,-1.6370606E0,6.583863E-1,5.1260514E0,1.1366433E0,-4.0555975E-1,3.5637498E0,5.6817377E-1,-9.8532206E-1,-1.2667147E0,2.5730824E-1,5.818703E-1,-2.4093762E-1,-3.9481708E-1,6.039684E-1],"categories":[],"categories_nodes":[],"categories_segments":[],"categories_sizes":[],"default_left":[0,0,0,0,0,0,0,0,0,0,0,0,0,0,0,0,0,0,0,0,0,0,0,0,0,0,0,0,0,0,0,0,0,0,0,0,0,0,0,0,0,0,0,0,0,0,0,0,0,0,0,0,0,0,0,0,0,0,0,0,0,0,0,0,0,0,0,0,0,0,0,0,0,0,0,0,0,0,0,0,0,0,0,0,0,0,0,0,0,0,0,0,0,0,0,0,0,0,0,0,0,0,0,0,0],"id":16,"left_children":[1,3,5,7,9,11,13,15,17,19,21,23,25,27,29,31,33,35,37,39,41,43,45,-1,47,-1,49,51,53,-1,55,57,59,61,63,65,67,69,71,73,75,77,79,81,83,-1,85,87,89,91,93,95,97,99,101,-1,103,-1,-1,-1,-1,-1,-1,-1,-1,-1,-1,-1,-1,-1,-1,-1,-1,-1,-1,-1,-1,-1,-1,-1,-1,-1,-1,-1,-1,-1,-1,-1,-1,-1,-1,-1,-1,-1,-1,-1,-1,-1,-1,-1,-1,-1,-1,-1,-1],"loss_changes":[1.214123E2,6.225136E1,1.2983849E2,1.5951756E2,9.354582E1,4.6813525E2,3.1302378E1,2.2461717E2,1.7960712E1,1.7481091E2,3.0897247E2,3.7864105E2,4.32524E2,1.5372315E1,4.7644356E1,1.3351181E2,3.8473532E2,6.895686E1,7.0927505E1,6.2374817E2,8.1950836E1,4.6481436E2,1.768968E2,0E0,1.291717E2,0E0,4.542512E2,5.106732E1,3.8177197E1,0E0,1.6017735E1,7.380788E1,9.084998E1,2.8424257E1,9.5618976E2,2.0088455E1,3.9774612E1,1.5046234E1,6.221998E1,9.30305E1,8.2837756E2,9.8631935E1,2.8649194E2,1.2690155E1,1.381131E2,0E0,3.1613452E0,1.7228259E3,4.852399E2,8.462526E1,3.1573242E1,2.2218843E2,5.9401997E1,8.66068E1,3.419038E1,0E0,2.7575327E1,0E0,0E0,0E0,0E0,0E0,0E0,0E0,0E0,0E0,0E0,0E0,0E0,0E0,0E0,0E0,0E0,0E0,0E0,0E0,0E0,0E0,0E0,0E0,0E0,0E0,0E0,0E0,0E0,0E0,0E0,0E0,0E0,0E0,0E0,0E0,0E0,0E0,0E0,0E0,0E0,0E0,0E0,0E0,0E0,0E0,0E0,0E0,0E0],"parents":[2147483647,0,0,1,1,2,2,3,3,4,4,5,5,6,6,7,7,8,8,9,9,10,10,11,11,12,12,13,13,14,14,15,15,16,16,17,17,18,18,19,19,20,20,21,21,22,22,24,24,26,26,27,27,28,28,30,30,31,31,32,32,33,33,34,34,35,35,36,36,37,37,38,38,39,39,40,40,41,41,42,42,43,43,44,44,46,46,47,47,48,48,49,49,50,50,51,51,52,52,53,53,54,54,56,56],"right_children":[2,4,6,8,10,12,14,16,18,20,22,24,26,28,30,32,34,36,38,40,42,44,46,-1,48,-1,50,52,54,-1,56,58,60,62,64,66,68,70,72,74,76,78,80,82,84,-1,86,88,90,92,94,96,98,100,102,-1,104,-1,-1,-1,-1,-1,-1,-1,-1,-1,-1,-1,-1,-1,-1,-1,-1,-1,-1,-1,-1,-1,-1,-1,-1,-1,-1,-1,-1,-1,-1,-1,-1,-1,-1,-1,-1,-1,-1,-1,-1,-1,-1,-1,-1,-1,-1,-1,-1],"split_conditions":[1.0397066E0,7.938117E-1,6.546669E-1,8.5615987E-1,5.4634266E-2,-2.530122E-1,1.8277645E0,-7.334236E-1,1.0951275E0,-2.530122E-1,6.546669E-1,-1.6915676E-1,1.0889466E0,-1.6915676E-1,7.938117E-1,1.0951275E0,-2.530122E-1,-5.3640914E-1,-7.334236E-1,-1.4238021E-1,-1.4238021E-1,-1.6915676E-1,8.5615987E-1,3.8344347E0,1.236721E0,6.8337846E0,1.8277645E0,7.938117E-1,1.0889466E0,1.9976075E0,8.5615987E-1,-1.1274525E0,-1.1274525E0,-1.6915676E-1,1.0889466E0,-1.1274525E0,-1.6915676E-1,-1.1274525E0,9.6964806E-1,-3.3939466E-1,1.0889466E0,1.0951275E0,1.0889466E0,2.5164872E-1,4.486632E-1,1.8455998E0,9.6964806E-1,1.0889466E0,1.0889466E0,1.4337355E0,9.6964806E-1,1.4337355E0,1.0951275E0,7.938117E-1,9.6964806E-1,1.084916E0,9.6964806E-1,-1.105471E0,2.2179843E-1,2.8225892E0,-2.468567E-2,-1.5899152E-1,7.2034746E-1,8.5469055E0,1.1134516E0,-2.049035E-1,-1.0913936E0,-4.3630257E-1,3.5257566E-1,2.2039585E-1,9.603693E-1,-7.1218276E-1,2.225142E-1,3.750125E-1,-1.2177513E0,-8.152695E-2,8.512753E0,3.147681E-1,-4.5081508E-1,4.2535746E-1,-2.910189E0,3.8596803E-1,2.1576035E0,-2.7001739E0,-9.644289E-1,2.2246553E-2,-1.8485048E-1,-8.051912E0,4.5621233E0,1.8399193E0,-1.9756898E0,-1.6370606E0,6.583863E-1,5.1260514E0,1.1366433E0,-4.0555975E-1,3.5637498E0,5.6817377E-1,-9.8532206E-1,-1.2667147E0,2.5730824E-1,5.818703E-1,-2.4093762E-1,-3.9481708E-1,6.039684E-1],"split_indices":[3,2,6,7,3,4,3,3,4,4,6,1,1,1,2,4,4,3,3,3,3,1,7,0,3,0,3,2,1,0,7,3,3,1,1,3,1,3,0,3,1,4,1,3,3,0,0,1,1,3,0,3,4,2,0,0,0,0,0,0,0,0,0,0,0,0,0,0,0,0,0,0,0,0,0,0,0,0,0,0,0,0,0,0,0,0,0,0,0,0,0,0,0,0,0,0,0,0,0,0,0,0,0,0,0],"split_type":[0,0,0,0,0,0,0,0,0,0,0,0,0,0,0,0,0,0,0,0,0,0,0,0,0,0,0,0,0,0,0,0,0,0,0,0,0,0,0,0,0,0,0,0,0,0,0,0,0,0,0,0,0,0,0,0,0,0,0,0,0,0,0,0,0,0,0,0,0,0,0,0,0,0,0,0,0,0,0,0,0,0,0,0,0,0,0,0,0,0,0,0,0,0,0,0,0,0,0,0,0,0,0,0,0],"sum_hessian":[3.22E2,2.52E2,7E1,1.09E2,1.43E2,2E1,5E1,4E1,6.9E1,9.1E1,5.2E1,1.3E1,7E0,4E1,1E1,1.7E1,2.3E1,3.4E1,3.5E1,2.4E1,6.7E1,2.2E1,3E1,1E0,1.2E1,1E0,6E0,1.1E1,2.9E1,1E0,9E0,1.4E1,3E0,1.3E1,1E1,1.1E1,2.3E1,1.1E1,2.4E1,2.1E1,3E0,5.9E1,8E0,3E0,1.9E1,4E0,2.6E1,2E0,1E1,4E0,2E0,4E0,7E0,1.2E1,1.7E1,1E0,8E0,8E0,6E0,1E0,2E0,9E0,4E0,1E0,9E0,4E0,7E0,8E0,1.5E1,5E0,6E0,1.1E1,1.3E1,1.8E1,3E0,2E0,1E0,3.2E1,2.7E1,5E0,3E0,1E0,2E0,8E0,1.1E1,1.1E1,1.5E1,1E0,1E0,5E0,5E0,2E0,2E0,1E0,1E0,3E0,1E0,4E0,3E0,5E0,7E0,1E1,7E0,4E0,4E0],"tree_param":{"num_deleted":"0","num_feature":"8","num_nodes":"105","size_leaf_vector":"1"}},{"base_weights":[4.0556484E-1,1.3724642E-1,1.3559732E0,5.562396E-1,-2.2730094E-1,3.1571648E0,5.877184E-1,1.8561785E0,-1.3419291E-1,-4.4121307E-1,-3.1028854E-2,-5.9672766E-3,8.298E0,2.4040893E-1,1.8288068E0,6.6980374E-1,5.0308547E0,-1.141258E0,1.1356659E0,7.299932E-2,-9.420554E-1,-5.5536604E-1,5.087352E-1,3.2592683E0,-1.6778458E0,5.808719E0,3.9513156E0,1.0849171E0,-1.0540797E-1,1.6979668E0,8.797096E-1,2.139584E0,-1.2677568E0,-4.178336E-1,1.1652847E1,-3.088105E0,1.1380556E0,7.077547E0,-2.6971524E0,-5.693864E-1,1.2446232E0,-1.1075592E-1,-2.3875997E0,-1.3828214E0,3.0131912E-1,1.0858401E0,-1.2869422E-1,6.007775E-1,-5.443799E0,-1.5658814E0,1.1829539E1,3.2007613E0,-3.7310028E-1,-1.0723337E0,5.9878325E-1,1.0165604E0,2.2444746E-1,-2.2769167E-1,2.4189575E0,9.258019E-1,-2.9165194E0,-5.46682E-1,6.186531E-1,5.1599994E0,6.6642463E-1,-1.3141103E-1,-4.8686814E0,-6.3907236E-1,3.6067963E0,-1.0627494E0,4.011355E0,8.075126E-1,-2.4992144E0,-3.387375E-2,-3.0467868E-1,-2.7891053E-2,7.793135E-1,-6.920934E-1,1.5163766E-1,-8.767907E-1,5.7515718E-2,1.0081893E-2,-1.1447353E0,-2.5528747E-1,8.8192385E-1,1.0875531E-1,6.105282E-1,2.271902E-1,-6.080702E-1,-1.9775482E0,1.0792493E0,-5.9209746E-1,-2.129802E0,-1.774315E0,2.9995194E-1,4.357146E0,9.661469E-1,-3.14308E-1,3.0291872E0,4.3181172E-1,-7.636248E-1,2.920395E-1,-8.8948256E-1,-1.3381597E-1,5.881757E-1,-4.1108096E-1,5.322826E-1],"categories":[],"categories_nodes":[],"categories_segments":[],"categories_sizes":[],"default_left":[0,0,0,0,0,0,0,0,0,0,0,0,0,0,0,0,0,0,0,0,0,0,0,0,0,0,0,0,0,0,0,0,0,0,0,0,0,0,0,0,0,0,0,0,0,0,0,0,0,0,0,0,0,0,0,0,0,0,0,0,0,0,0,0,0,0,0,0,0,0,0,0,0,0,0,0,0,0,0,0,0,0,0,0,0,0,0,0,0,0,0,0,0,0,0,0,0,0,0,0,0,0,0,0,0,0,0],"id":17,"left_children":[1,3,5,7,9,11,13,15,17,19,21,23,25,27,29,31,33,35,37,39,41,43,45,-1,47,-1,49,51,53,-1,55,57,59,61,63,65,67,69,71,73,75,77,79,81,83,85,87,89,91,93,95,97,99,101,103,-1,105,-1,-1,-1,-1,-1,-1,-1,-1,-1,-1,-1,-1,-1,-1,-1,-1,-1,-1,-1,-1,-1,-1,-1,-1,-1,-1,-1,-1,-1,-1,-1,-1,-1,-1,-1,-1,-1,-1,-1,-1,-1,-1,-1,-1,-1,-1,-1,-1,-1,-1],"loss_changes":[8.21828E1,3.8770374E1,9.6392426E1,1.0615645E2,5.6962667E0,3.415335E2,2.1543472E1,1.5105089E2,1.01044876E2,1.6808826E1,2.0659855E1,2.7265955E2,3.0824054E2,1.2088212E1,3.5017708E1,9.099391E1,4.0176184E2,1.9876334E2,8.1618445E2,2.5545609E1,3.9391014E1,2.6644814E1,1.33828335E1,0E0,1.1482596E2,0E0,3.227836E2,3.8213455E1,2.1069115E1,0E0,1.5678833E1,3.151781E2,5.452937E2,2.8139029E1,2.2337958E2,8.2866956E2,7.726671E2,9.831092E2,6.903104E2,4.366348E0,2.1960094E1,3.0939657E1,1.7120659E1,6.560443E1,6.0265392E1,1.2307959E1,3.180739E1,2.1770207E2,1.47131195E1,6.169865E1,2.2811768E1,1.5707681E2,3.51619E1,5.322091E1,2.6486021E1,0E0,2.467507E1,0E0,0E0,0E0,0E0,0E0,0E0,0E0,0E0,0E0,0E0,0E0,0E0,0E0,0E0,0E0,0E0,0E0,0E0,0E0,0E0,0E0,0E0,0E0,0E0,0E0,0E0,0E0,0E0,0E0,0E0,0E0,0E0,0E0,0E0,0E0,0E0,0E0,0E0,0E0,0E0,0E0,0E0,0E0,0E0,0E0,0E0,0E0,0E0,0E0,0E0],"parents":[2147483647,0,0,1,1,2,2,3,3,4,4,5,5,6,6,7,7,8,8,9,9,10,10,11,11,12,12,13,13,14,14,15,15,16,16,17,17,18,18,19,19,20,20,21,21,22,22,24,24,26,26,27,27,28,28,30,30,31,31,32,32,33,33,34,34,35,35,36,36,37,37,38,38,39,39,40,40,41,41,42,42,43,43,44,44,45,45,46,46,47,47,48,48,49,49,50,50,51,51,52,52,53,53,54,54,56,56],"right_children":[2,4,6,8,10,12,14,16,18,20,22,24,26,28,30,32,34,36,38,40,42,44,46,-1,48,-1,50,52,54,-1,56,58,60,62,64,66,68,70,72,74,76,78,80,82,84,86,88,90,92,94,96,98,100,102,104,-1,106,-1,-1,-1,-1,-1,-1,-1,-1,-1,-1,-1,-1,-1,-1,-1,-1,-1,-1,-1,-1,-1,-1,-1,-1,-1,-1,-1,-1,-1,-1,-1,-1,-1,-1,-1,-1,-1,-1,-1,-1,-1,-1,-1,-1,-1,-1,-1,-1,-1,-1],"split_conditions":[1.0397066E0,8.5615987E-1,6.546669E-1,